{"learner":{"attributes":{"scikit_learn":"{\"_estimator_type\": \"classifier\"}"},"feature_names":["OPERA_Latin American Wings","OPERA_Grupo LATAM","OPERA_Sky Airline","OPERA_Copa Air","TIPOVUELO_I","MES_7","MES_10","MES_12","MES_4","MES_11"],"feature_types":["i","i","i","i","i","i","i","i","i","i"],"gradient_booster":{"model":{"gbtree_model_param":{"num_parallel_tree":"1","num_trees":"100"},"iteration_indptr":[0,1,2,3,4,5,6,7,8,9,10,11,12,13,14,15,16,17,18,19,20,21,22,23,24,25,26,27,28,29,30,31,32,33,34,35,36,37,38,39,40,41,42,43,44,45,46,47,48,49,50,51,52,53,54,55,56,57,58,59,60,61,62,63,64,65,66,67,68,69,70,71,72,73,74,75,76,77,78,79,80,81,82,83,84,85,86,87,88,89,90,91,92,93,94,95,96,97,98,99,100],"tree_info":[0,0,0,0,0,0,0,0,0,0,0,0,0,0,0,0,0,0,0,0,0,0,0,0,0,0,0,0,0,0,0,0,0,0,0,0,0,0,0,0,0,0,0,0,0,0,0,0,0,0,0,0,0,0,0,0,0,0,0,0,0,0,0,0,0,0,0,0,0,0,0,0,0,0,0,0,0,0,0,0,0,0,0,0,0,0,0,0,0,0,0,0,0,0,0,0,0,0,0,0],"trees":[{"base_weights":[-2.168139E-8,-2.3867042E-1,2.4169104E-1,-3.1692532E-1,4.337035E-1,2.9905695E-1,-1.118799E0,-3.9733782E-1,2.4322434E-1,2.96071E-1,4.974285E-3,2.4953817E-1,1.1970031E0,-1.2511842E0,-1.7569794E-3,-4.8250058E-1,1.6571285E-1,-4.5493416E-2,7.3128883E-3,3.0350047E-3,1.9048618E-3,1.9707175E-1,6.887213E-1,1.2581859E0,-1.2796676E-4,-1.3087554E-2,-7.740647E-3,-5.589768E-1,-3.41468E-2,1.2992124E-1,1.4329176E-2,-8.641067E-2,7.349851E-3,1.4491732E-1,6.008221E-1,5.0818163E-1,7.835003E-3,1.1937501E-2,1.6691208E-2,-5.775267E-3,3.948533E-3,-7.39282E-4,9.937141E-3,5.951073E-4,1.721858E-3,-7.362644E-4,-8.827064E-4,1.7298646E-3,-1.5734526E-3,5.2036853E-3,1.0863821E-2,4.8457626E-3,5.723878E-3],"categories":[],"categories_nodes":[],"categories_segments":[],"categories_sizes":[],"default_left":[0,0,0,0,0,0,0,0,0,0,0,0,0,0,0,0,0,0,0,0,0,0,0,0,0,0,0,0,0,0,0,0,0,0,0,0,0,0,0,0,0,0,0,0,0,0,0,0,0,0,0,0,0],"id":0,"left_children":[1,3,5,7,9,11,13,15,17,19,-1,21,23,25,-1,27,29,31,-1,-1,-1,33,35,37,-1,-1,-1,39,41,43,-1,45,-1,47,49,51,-1,-1,-1,-1,-1,-1,-1,-1,-1,-1,-1,-1,-1,-1,-1,-1,-1],"loss_changes":[1.0758737E3,4.9389868E2,7.2357336E2,3.7874646E2,8.436905E0,3.951176E2,4.661798E1,3.525907E2,1.4882483E2,1.8710709E-1,0E0,1.9409308E2,3.439862E1,8.018616E0,0E0,2.1894348E2,4.365371E1,2.1280746E1,0E0,0E0,0E0,1.5849768E2,1.4987091E1,9.715393E0,0E0,0E0,0E0,9.6750854E1,3.8166122E1,2.790453E0,0E0,8.533478E-3,0E0,5.662448E1,3.3078278E1,1.9606018E-1,0E0,0E0,0E0,0E0,0E0,0E0,0E0,0E0,0E0,0E0,0E0,0E0,0E0,0E0,0E0,0E0,0E0],"parents":[2147483647,0,0,1,1,2,2,3,3,4,4,5,5,6,6,7,7,8,8,9,9,11,11,12,12,13,13,15,15,16,16,17,17,21,21,22,22,23,23,27,27,28,28,29,29,31,31,33,33,34,34,35,35],"right_children":[2,4,6,8,10,12,14,16,18,20,-1,22,24,26,-1,28,30,32,-1,-1,-1,34,36,38,-1,-1,-1,40,42,44,-1,46,-1,48,50,52,-1,-1,-1,-1,-1,-1,-1,-1,-1,-1,-1,-1,-1,-1,-1,-1,-1],"split_conditions":[1E0,1E0,1E0,1E0,1E0,1E0,1E0,1E0,1E0,1E0,4.974285E-3,1E0,1E0,1E0,-1.7569794E-3,1E0,1E0,1E0,7.3128883E-3,3.0350047E-3,1.9048618E-3,1E0,1E0,1E0,-1.2796676E-4,-1.3087554E-2,-7.740647E-3,1E0,1E0,1E0,1.4329176E-2,1E0,7.349851E-3,1E0,1E0,1E0,7.835003E-3,1.1937501E-2,1.6691208E-2,-5.775267E-3,3.948533E-3,-7.39282E-4,9.937141E-3,5.951073E-4,1.721858E-3,-7.362644E-4,-8.827064E-4,1.7298646E-3,-1.5734526E-3,5.2036853E-3,1.0863821E-2,4.8457626E-3,5.723878E-3],"split_indices":[4,5,3,7,1,0,5,6,2,0,0,5,8,6,0,9,0,0,0,0,0,7,1,6,0,0,0,0,0,1,0,1,0,8,2,2,0,0,0,0,0,0,0,0,0,0,0,0,0,0,0,0,0],"split_type":[0,0,0,0,0,0,0,0,0,0,0,0,0,0,0,0,0,0,0,0,0,0,0,0,0,0,0,0,0,0,0,0,0,0,0,0,0,0,0,0,0,0,0,0,0,0,0,0,0,0,0,0,0],"sum_hessian":[1.8649E4,9.383142E3,9.265858E3,8.405399E3,9.777419E2,8.891714E3,3.741444E2,7.350488E3,1.0549117E3,3.1121957E2,6.6652234E2,8.428204E3,4.635099E2,3.2780328E2,4.634113E1,6.3849E3,9.65588E2,6.633874E2,3.9152435E2,2.890089E2,2.2210655E1,7.5300815E3,8.981224E2,4.4115927E2,2.2350595E1,2.9095267E2,3.6850594E1,5.454305E3,9.3059454E2,9.4013684E2,2.545119E1,6.3118616E2,3.220119E1,6.669862E3,8.6022E2,3.1137048E2,5.867519E2,3.8473648E2,5.64228E1,5.350642E3,1.0366333E2,8.968132E2,3.378137E1,3.5354974E2,5.865871E2,8.5322205E1,5.4586395E2,6.1034976E3,5.6636395E2,7.39725E2,1.20494995E2,2.339178E2,7.7452675E1],"tree_param":{"num_deleted":"0","num_feature":"10","num_nodes":"53","size_leaf_vector":"1"}},{"base_weights":[4.7785143E-6,-2.362801E-1,2.3928006E-1,-3.1375355E-1,4.2937866E-1,2.9607502E-1,-1.10771E0,-3.9336362E-1,2.4080577E-1,2.931267E-1,4.9246466E-3,2.4704774E-1,1.1851395E0,-1.2387849E0,-1.739781E-3,-4.776777E-1,1.6407321E-1,-4.5029916E-2,7.240043E-3,3.0047658E-3,1.886635E-3,1.9510368E-1,6.818629E-1,1.2457186E0,-1.2674139E-4,-1.2957682E-2,-7.6653985E-3,-5.533918E-1,-3.3795465E-2,1.2862454E-1,1.4192005E-2,-8.554917E-2,7.2786626E-3,1.4346844E-1,5.9483844E-1,5.031368E-1,7.756905E-3,1.1818856E-2,1.6528338E-2,-5.7175704E-3,3.9094384E-3,-7.3189725E-4,9.840864E-3,5.891729E-4,1.7046699E-3,-7.2898506E-4,-8.738963E-4,1.712572E-3,-1.5577483E-3,5.1517533E-3,1.0756392E-2,4.7975383E-3,5.667414E-3],"categories":[],"categories_nodes":[],"categories_segments":[],"categories_sizes":[],"default_left":[0,0,0,0,0,0,0,0,0,0,0,0,0,0,0,0,0,0,0,0,0,0,0,0,0,0,0,0,0,0,0,0,0,0,0,0,0,0,0,0,0,0,0,0,0,0,0,0,0,0,0,0,0],"id":1,"left_children":[1,3,5,7,9,11,13,15,17,19,-1,21,23,25,-1,27,29,31,-1,-1,-1,33,35,37,-1,-1,-1,39,41,43,-1,45,-1,47,49,51,-1,-1,-1,-1,-1,-1,-1,-1,-1,-1,-1,-1,-1,-1,-1,-1,-1],"loss_changes":[1.0544675E3,4.8408014E2,7.0925903E2,3.712224E2,8.268463E0,3.8732465E2,4.569641E1,3.4559436E2,1.4586946E2,1.8303108E-1,0E0,1.9024896E2,3.3720398E1,7.854492E0,0E0,2.145979E2,4.2823402E1,2.0868984E1,0E0,0E0,0E0,1.5535892E2,1.4687317E1,9.536621E0,0E0,0E0,0E0,9.483411E1,3.7427723E1,2.7349882E0,0E0,8.348465E-3,0E0,5.5498856E1,3.2432037E1,1.9268036E-1,0E0,0E0,0E0,0E0,0E0,0E0,0E0,0E0,0E0,0E0,0E0,0E0,0E0,0E0,0E0,0E0,0E0],"parents":[2147483647,0,0,1,1,2,2,3,3,4,4,5,5,6,6,7,7,8,8,9,9,11,11,12,12,13,13,15,15,16,16,17,17,21,21,22,22,23,23,27,27,28,28,29,29,31,31,33,33,34,34,35,35],"right_children":[2,4,6,8,10,12,14,16,18,20,-1,22,24,26,-1,28,30,32,-1,-1,-1,34,36,38,-1,-1,-1,40,42,44,-1,46,-1,48,50,52,-1,-1,-1,-1,-1,-1,-1,-1,-1,-1,-1,-1,-1,-1,-1,-1,-1],"split_conditions":[1E0,1E0,1E0,1E0,1E0,1E0,1E0,1E0,1E0,1E0,4.9246466E-3,1E0,1E0,1E0,-1.739781E-3,1E0,1E0,1E0,7.240043E-3,3.0047658E-3,1.886635E-3,1E0,1E0,1E0,-1.2674139E-4,-1.2957682E-2,-7.6653985E-3,1E0,1E0,1E0,1.4192005E-2,1E0,7.2786626E-3,1E0,1E0,1E0,7.756905E-3,1.1818856E-2,1.6528338E-2,-5.7175704E-3,3.9094384E-3,-7.3189725E-4,9.840864E-3,5.891729E-4,1.7046699E-3,-7.2898506E-4,-8.738963E-4,1.712572E-3,-1.5577483E-3,5.1517533E-3,1.0756392E-2,4.7975383E-3,5.667414E-3],"split_indices":[4,5,3,7,1,0,5,6,2,0,0,5,8,6,0,9,0,0,0,0,0,7,1,6,0,0,0,0,0,1,0,1,0,8,2,2,0,0,0,0,0,0,0,0,0,0,0,0,0,0,0,0,0],"split_type":[0,0,0,0,0,0,0,0,0,0,0,0,0,0,0,0,0,0,0,0,0,0,0,0,0,0,0,0,0,0,0,0,0,0,0,0,0,0,0,0,0,0,0,0,0,0,0,0,0,0,0,0,0],"sum_hessian":[1.8648887E4,9.383083E3,9.265803E3,8.405346E3,9.7773706E2,8.891672E3,3.7413135E2,7.35044E3,1.0549059E3,3.1121887E2,6.665182E2,8.42818E3,4.6349222E2,3.2779025E2,4.6341095E1,6.384854E3,9.6558624E2,6.633868E2,3.9151913E2,2.8900824E2,2.2210634E1,7.5300684E3,8.981114E2,4.4114163E2,2.2350595E1,2.9094022E2,3.6850044E1,5.4542603E3,9.3059357E2,9.4013635E2,2.5449884E1,6.3118604E2,3.2200756E1,6.669857E3,8.602114E2,3.1136847E2,5.867429E2,3.8472278E2,5.641887E1,5.350597E3,1.0366293E2,8.9681305E2,3.3780533E1,3.535497E2,5.865867E2,8.532219E1,5.4586383E2,6.103493E3,5.6636365E2,7.3972E2,1.2049144E2,2.3391643E2,7.745204E1],"tree_param":{"num_deleted":"0","num_feature":"10","num_nodes":"53","size_leaf_vector":"1"}},{"base_weights":[9.232907E-6,-2.3391679E-1,2.3689564E-1,-3.106177E-1,4.2510137E-1,2.931253E-1,-1.096806E0,-3.894345E-1,2.3841389E-1,2.9021317E-1,4.8755663E-3,2.445833E-1,1.1734815E0,-1.2266042E0,-1.7227562E-3,-4.7291014E-1,1.6245045E-1,-4.4571158E-2,7.168112E-3,2.9748438E-3,1.8685864E-3,1.9315562E-1,6.750892E-1,1.2334719E0,-1.2552903E-4,-1.2830177E-2,-7.5910985E-3,-5.478719E-1,-3.344793E-2,1.2734091E-1,1.4057515E-2,-8.4696226E-2,7.2083464E-3,1.4203387E-1,5.889259E-1,4.9814847E-1,7.6798187E-3,1.1702211E-2,1.6369266E-2,-5.660549E-3,3.8707654E-3,-7.245879E-4,9.74598E-3,5.8329833E-4,1.6876555E-3,-7.2178233E-4,-8.65173E-4,1.6954502E-3,-1.5421978E-3,5.1004076E-3,1.0650641E-2,4.749849E-3,5.6115985E-3],"categories":[],"categories_nodes":[],"categories_segments":[],"categories_sizes":[],"default_left":[0,0,0,0,0,0,0,0,0,0,0,0,0,0,0,0,0,0,0,0,0,0,0,0,0,0,0,0,0,0,0,0,0,0,0,0,0,0,0,0,0,0,0,0,0,0,0,0,0,0,0,0,0],"id":2,"left_children":[1,3,5,7,9,11,13,15,17,19,-1,21,23,25,-1,27,29,31,-1,-1,-1,33,35,37,-1,-1,-1,39,41,43,-1,45,-1,47,49,51,-1,-1,-1,-1,-1,-1,-1,-1,-1,-1,-1,-1,-1,-1,-1,-1,-1],"loss_changes":[1.0334995E3,4.7446332E2,6.9526013E2,3.6385297E2,8.103729E0,3.797293E2,4.480069E1,3.387434E2,1.4297742E2,1.7905045E-1,0E0,1.8648932E2,3.306067E1,7.696167E0,0E0,2.1034546E2,4.201391E1,2.0465624E1,0E0,0E0,0E0,1.5228763E2,1.4395142E1,9.366028E0,0E0,0E0,0E0,9.295703E1,3.6705173E1,2.6806335E0,0E0,8.166313E-3,0E0,5.439537E1,3.1803131E1,1.893692E-1,0E0,0E0,0E0,0E0,0E0,0E0,0E0,0E0,0E0,0E0,0E0,0E0,0E0,0E0,0E0,0E0,0E0],"parents":[2147483647,0,0,1,1,2,2,3,3,4,4,5,5,6,6,7,7,8,8,9,9,11,11,12,12,13,13,15,15,16,16,17,17,21,21,22,22,23,23,27,27,28,28,29,29,31,31,33,33,34,34,35,35],"right_children":[2,4,6,8,10,12,14,16,18,20,-1,22,24,26,-1,28,30,32,-1,-1,-1,34,36,38,-1,-1,-1,40,42,44,-1,46,-1,48,50,52,-1,-1,-1,-1,-1,-1,-1,-1,-1,-1,-1,-1,-1,-1,-1,-1,-1],"split_conditions":[1E0,1E0,1E0,1E0,1E0,1E0,1E0,1E0,1E0,1E0,4.8755663E-3,1E0,1E0,1E0,-1.7227562E-3,1E0,1E0,1E0,7.168112E-3,2.9748438E-3,1.8685864E-3,1E0,1E0,1E0,-1.2552903E-4,-1.2830177E-2,-7.5910985E-3,1E0,1E0,1E0,1.4057515E-2,1E0,7.2083464E-3,1E0,1E0,1E0,7.6798187E-3,1.1702211E-2,1.6369266E-2,-5.660549E-3,3.8707654E-3,-7.245879E-4,9.74598E-3,5.8329833E-4,1.6876555E-3,-7.2178233E-4,-8.65173E-4,1.6954502E-3,-1.5421978E-3,5.1004076E-3,1.0650641E-2,4.749849E-3,5.6115985E-3],"split_indices":[4,5,3,7,1,0,5,6,2,0,0,5,8,6,0,9,0,0,0,0,0,7,1,6,0,0,0,0,0,1,0,1,0,8,2,2,0,0,0,0,0,0,0,0,0,0,0,0,0,0,0,0,0],"split_type":[0,0,0,0,0,0,0,0,0,0,0,0,0,0,0,0,0,0,0,0,0,0,0,0,0,0,0,0,0,0,0,0,0,0,0,0,0,0,0,0,0,0,0,0,0,0,0,0,0,0,0,0,0],"sum_hessian":[1.864855E4,9.382911E3,9.26564E3,8.4051875E3,9.7772284E2,8.891547E3,3.7409274E2,7.350299E3,1.0548888E3,3.1121686E2,6.66506E2,8.428106E3,4.6344003E2,3.2775174E2,4.634099E1,6.384718E3,9.65581E2,6.633852E2,3.915036E2,2.890063E2,2.2210575E1,7.5300283E3,8.9807874E2,4.4108942E2,2.2350595E1,2.9090335E2,3.6848408E1,5.4541274E3,9.3059064E2,9.40135E2,2.5446016E1,6.311857E2,3.2199467E1,6.6698423E3,8.6018604E2,3.1136252E2,5.8671625E2,3.846822E2,5.640723E1,5.350466E3,1.0366173E2,8.9681256E2,3.3778065E1,3.5354965E2,5.865854E2,8.532217E1,5.458636E2,6.1034795E3,5.663626E2,7.3970514E2,1.2048092E2,2.3391237E2,7.7450165E1],"tree_param":{"num_deleted":"0","num_feature":"10","num_nodes":"53","size_leaf_vector":"1"}},{"base_weights":[1.3733095E-5,-2.315798E-1,2.3453781E-1,-3.075168E-1,4.2087027E-1,2.9020777E-1,-1.0860817E0,-3.855492E-1,2.3604818E-1,2.873295E-1,4.8270286E-3,2.4214494E-1,1.1620225E0,-1.2146351E0,-1.7058984E-3,-4.6819642E-1,1.6084422E-1,-4.411722E-2,7.0970743E-3,2.9452296E-3,1.8507137E-3,1.9122785E-1,6.6839826E-1,1.2214386E0,-1.24329E-4,-1.2704965E-2,-7.517731E-3,-5.4241544E-1,-3.3103734E-2,1.2607013E-1,1.3925621E-2,-8.385193E-2,7.138893E-3,1.4061406E-1,5.8308333E-1,4.9321577E-1,7.603718E-3,1.1587504E-2,1.6213845E-2,-5.6041824E-3,3.832499E-3,-7.173486E-4,9.652453E-3,5.7748123E-4,1.6708126E-3,-7.1464805E-4,-8.56539E-4,1.6785046E-3,-1.5268088E-3,5.04964E-3,1.05465185E-2,4.702689E-3,5.5564153E-3],"categories":[],"categories_nodes":[],"categories_segments":[],"categories_sizes":[],"default_left":[0,0,0,0,0,0,0,0,0,0,0,0,0,0,0,0,0,0,0,0,0,0,0,0,0,0,0,0,0,0,0,0,0,0,0,0,0,0,0,0,0,0,0,0,0,0,0,0,0,0,0,0,0],"id":3,"left_children":[1,3,5,7,9,11,13,15,17,19,-1,21,23,25,-1,27,29,31,-1,-1,-1,33,35,37,-1,-1,-1,39,41,43,-1,45,-1,47,49,51,-1,-1,-1,-1,-1,-1,-1,-1,-1,-1,-1,-1,-1,-1,-1,-1,-1],"loss_changes":[1.0129608E3,4.650423E2,6.8156824E2,3.5663397E2,7.942581E0,3.7232452E2,4.392987E1,3.3203406E2,1.401471E2,1.7515564E-1,0E0,1.8281134E2,3.241858E1,7.5434265E0,0E0,2.0618347E2,4.122455E1,2.007051E1,0E0,0E0,0E0,1.4928177E2,1.41102295E1,9.203125E0,0E0,0E0,0E0,9.111853E1,3.5998043E1,2.627369E0,0E0,7.99036E-3,0E0,5.3314133E1,3.1190826E1,1.8613434E-1,0E0,0E0,0E0,0E0,0E0,0E0,0E0,0E0,0E0,0E0,0E0,0E0,0E0,0E0,0E0,0E0,0E0],"parents":[2147483647,0,0,1,1,2,2,3,3,4,4,5,5,6,6,7,7,8,8,9,9,11,11,12,12,13,13,15,15,16,16,17,17,21,21,22,22,23,23,27,27,28,28,29,29,31,31,33,33,34,34,35,35],"right_children":[2,4,6,8,10,12,14,16,18,20,-1,22,24,26,-1,28,30,32,-1,-1,-1,34,36,38,-1,-1,-1,40,42,44,-1,46,-1,48,50,52,-1,-1,-1,-1,-1,-1,-1,-1,-1,-1,-1,-1,-1,-1,-1,-1,-1],"split_conditions":[1E0,1E0,1E0,1E0,1E0,1E0,1E0,1E0,1E0,1E0,4.8270286E-3,1E0,1E0,1E0,-1.7058984E-3,1E0,1E0,1E0,7.0970743E-3,2.9452296E-3,1.8507137E-3,1E0,1E0,1E0,-1.24329E-4,-1.2704965E-2,-7.517731E-3,1E0,1E0,1E0,1.3925621E-2,1E0,7.138893E-3,1E0,1E0,1E0,7.603718E-3,1.1587504E-2,1.6213845E-2,-5.6041824E-3,3.832499E-3,-7.173486E-4,9.652453E-3,5.7748123E-4,1.6708126E-3,-7.1464805E-4,-8.56539E-4,1.6785046E-3,-1.5268088E-3,5.04964E-3,1.05465185E-2,4.702689E-3,5.5564153E-3],"split_indices":[4,5,3,7,1,0,5,6,2,0,0,5,8,6,0,9,0,0,0,0,0,7,1,6,0,0,0,0,0,1,0,1,0,8,2,2,0,0,0,0,0,0,0,0,0,0,0,0,0,0,0,0,0],"split_type":[0,0,0,0,0,0,0,0,0,0,0,0,0,0,0,0,0,0,0,0,0,0,0,0,0,0,0,0,0,0,0,0,0,0,0,0,0,0,0,0,0,0,0,0,0,0,0,0,0,0,0,0,0],"sum_hessian":[1.8647998E4,9.382627E3,9.265371E3,8.404927E3,9.7769946E2,8.891342E3,3.740293E2,7.3500664E3,1.0548606E3,3.1121353E2,6.6648596E2,8.427987E3,4.633543E2,3.2768848E2,4.6340813E1,6.384494E3,9.655724E2,6.6338245E2,3.9147818E2,2.8900305E2,2.2210478E1,7.5299624E3,8.9802527E2,4.4100372E2,2.2350592E1,2.9084277E2,3.6845722E1,5.453908E3,9.3058606E2,9.401327E2,2.543966E1,6.311851E2,3.219735E1,6.669818E3,8.601445E2,3.1135275E2,5.866725E2,3.846156E2,5.6388126E1,5.350248E3,1.0365977E2,8.968121E2,3.3774006E1,3.535495E2,5.8658325E2,8.53221E1,5.45863E2,6.103457E3,5.663609E2,7.3968085E2,1.2046363E2,2.3390569E2,7.744708E1],"tree_param":{"num_deleted":"0","num_feature":"10","num_nodes":"53","size_leaf_vector":"1"}},{"base_weights":[1.8167091E-5,-2.2926874E-1,2.3220603E-1,-3.044504E-1,4.1668513E-1,2.8732187E-1,-1.0755315E0,-3.8170722E-1,2.3370835E-1,2.8447568E-1,4.7790282E-3,2.3973222E-1,1.1507564E0,-1.202871E0,-1.6892086E-3,-4.635358E-1,1.5925467E-1,-4.3667965E-2,7.026916E-3,2.9159233E-3,1.8330159E-3,1.8931997E-1,6.61789E-1,1.2096125E0,-1.231372E-4,-1.2581967E-2,-7.445268E-3,-5.370214E-1,-3.276348E-2,1.24812365E-1,1.3796232E-2,-8.3016075E-2,7.0702806E-3,1.3920861E-1,5.773094E-1,4.8833767E-1,7.5285905E-3,1.1474677E-2,1.6061947E-2,-5.5484623E-3,3.7946391E-3,-7.101857E-4,9.560251E-3,5.717229E-4,1.6541434E-3,-7.075864E-4,-8.4799103E-4,1.6617307E-3,-1.5115757E-3,4.9994406E-3,1.0443982E-2,4.6560457E-3,5.5018626E-3],"categories":[],"categories_nodes":[],"categories_segments":[],"categories_sizes":[],"default_left":[0,0,0,0,0,0,0,0,0,0,0,0,0,0,0,0,0,0,0,0,0,0,0,0,0,0,0,0,0,0,0,0,0,0,0,0,0,0,0,0,0,0,0,0,0,0,0,0,0,0,0,0,0],"id":4,"left_children":[1,3,5,7,9,11,13,15,17,19,-1,21,23,25,-1,27,29,31,-1,-1,-1,33,35,37,-1,-1,-1,39,41,43,-1,45,-1,47,49,51,-1,-1,-1,-1,-1,-1,-1,-1,-1,-1,-1,-1,-1,-1,-1,-1,-1],"loss_changes":[9.928413E2,4.558132E2,6.6817505E2,3.4956287E2,7.784958E0,3.651037E2,4.3082855E1,3.254629E2,1.373771E2,1.7134476E-1,0E0,1.7921344E2,3.179358E1,7.395996E0,0E0,2.0210913E2,4.0454575E1,1.9683432E1,0E0,0E0,0E0,1.463399E2,1.3832397E1,9.047424E0,0E0,0E0,0E0,8.931787E1,3.5306007E1,2.5751867E0,0E0,7.816315E-3,0E0,5.225447E1,3.0594543E1,1.8297577E-1,0E0,0E0,0E0,0E0,0E0,0E0,0E0,0E0,0E0,0E0,0E0,0E0,0E0,0E0,0E0,0E0,0E0],"parents":[2147483647,0,0,1,1,2,2,3,3,4,4,5,5,6,6,7,7,8,8,9,9,11,11,12,12,13,13,15,15,16,16,17,17,21,21,22,22,23,23,27,27,28,28,29,29,31,31,33,33,34,34,35,35],"right_children":[2,4,6,8,10,12,14,16,18,20,-1,22,24,26,-1,28,30,32,-1,-1,-1,34,36,38,-1,-1,-1,40,42,44,-1,46,-1,48,50,52,-1,-1,-1,-1,-1,-1,-1,-1,-1,-1,-1,-1,-1,-1,-1,-1,-1],"split_conditions":[1E0,1E0,1E0,1E0,1E0,1E0,1E0,1E0,1E0,1E0,4.7790282E-3,1E0,1E0,1E0,-1.6892086E-3,1E0,1E0,1E0,7.026916E-3,2.9159233E-3,1.8330159E-3,1E0,1E0,1E0,-1.231372E-4,-1.2581967E-2,-7.445268E-3,1E0,1E0,1E0,1.3796232E-2,1E0,7.0702806E-3,1E0,1E0,1E0,7.5285905E-3,1.1474677E-2,1.6061947E-2,-5.5484623E-3,3.7946391E-3,-7.101857E-4,9.560251E-3,5.717229E-4,1.6541434E-3,-7.075864E-4,-8.4799103E-4,1.6617307E-3,-1.5115757E-3,4.9994406E-3,1.0443982E-2,4.6560457E-3,5.5018626E-3],"split_indices":[4,5,3,7,1,0,5,6,2,0,0,5,8,6,0,9,0,0,0,0,0,7,1,6,0,0,0,0,0,1,0,1,0,8,2,2,0,0,0,0,0,0,0,0,0,0,0,0,0,0,0,0,0],"split_type":[0,0,0,0,0,0,0,0,0,0,0,0,0,0,0,0,0,0,0,0,0,0,0,0,0,0,0,0,0,0,0,0,0,0,0,0,0,0,0,0,0,0,0,0,0,0,0,0,0,0,0,0,0],"sum_hessian":[1.8647238E4,9.382235E3,9.265002E3,8.404568E3,9.7766724E2,8.89106E3,3.7394186E2,7.3497466E3,1.0548218E3,3.1120892E2,6.664583E2,8.427824E3,4.6323602E2,3.276013E2,4.6340576E1,6.384186E3,9.655605E2,6.633787E2,3.9144305E2,2.889986E2,2.221034E1,7.5298726E3,8.9795135E2,4.4088544E2,2.2350592E1,2.9075925E2,3.684202E1,5.4536064E3,9.3057965E2,9.401296E2,2.5430885E1,6.311843E2,3.219443E1,6.6697856E3,8.6008704E2,3.113393E2,5.8661206E2,3.8452365E2,5.6361763E1,5.3499497E3,1.0365705E2,8.968112E2,3.376841E1,3.5354926E2,5.865803E2,8.532202E1,5.458623E2,6.103427E3,5.663586E2,7.396472E2,1.2043978E2,2.3389647E2,7.7442825E1],"tree_param":{"num_deleted":"0","num_feature":"10","num_nodes":"53","size_leaf_vector":"1"}},{"base_weights":[2.250985E-5,-2.2698323E-1,2.2989982E-1,-3.0141798E-1,4.1254532E-1,2.84467E-1,-1.0651505E0,-3.779079E-1,2.3139414E-1,2.8165138E-1,4.7315597E-3,2.3734468E-1,1.1396775E0,-1.1913059E0,-1.6726842E-3,-4.5892748E-1,1.5768123E-1,-4.322317E-2,6.9576185E-3,2.8869202E-3,1.8154894E-3,1.8743165E-1,6.5525913E-1,1.1979867E0,-1.2195783E-4,-1.246112E0,-7.373703E-3,-5.316889E-1,-3.242636E-2,1.2356712E-1,1.3669266E-2,-8.218838E-2,7.00249E-3,1.3781737E-1,5.716027E-1,4.8351327E-1,7.454405E-3,1.1363674E-2,1.5913438E-2,-1.2200889E-2,-1.4860818E-2,-5.4933787E-3,3.7571779E-3,-7.0309005E-4,9.469339E-3,5.6602317E-4,1.6376397E-3,-7.005925E-4,-8.395267E-4,1.645126E-3,-1.496494E-3,4.949797E-3,1.0342986E-2,4.6099126E-3,5.4479204E-3],"categories":[],"categories_nodes":[],"categories_segments":[],"categories_sizes":[],"default_left":[0,0,0,0,0,0,0,0,0,0,0,0,0,0,0,0,0,0,0,0,0,0,0,0,0,0,0,0,0,0,0,0,0,0,0,0,0,0,0,0,0,0,0,0,0,0,0,0,0,0,0,0,0,0,0],"id":5,"left_children":[1,3,5,7,9,11,13,15,17,19,-1,21,23,25,-1,27,29,31,-1,-1,-1,33,35,37,-1,39,-1,41,43,45,-1,47,-1,49,51,53,-1,-1,-1,-1,-1,-1,-1,-1,-1,-1,-1,-1,-1,-1,-1,-1,-1,-1,-1],"loss_changes":[9.731316E2,4.467723E2,6.5507275E2,3.4263593E2,7.6307373E0,3.5806067E2,4.225882E1,3.1902734E2,1.346658E2,1.6762543E-1,0E0,1.756929E2,3.1184875E1,7.253479E0,0E0,1.9812097E2,3.9703346E1,1.9304176E1,0E0,0E0,0E0,1.4346027E2,1.3561371E1,8.898621E0,0E0,8.148193E-3,0E0,8.755432E1,3.4628586E1,2.5240297E0,0E0,7.6465607E-3,0E0,5.121586E1,3.0013702E1,1.798935E-1,0E0,0E0,0E0,0E0,0E0,0E0,0E0,0E0,0E0,0E0,0E0,0E0,0E0,0E0,0E0,0E0,0E0,0E0,0E0],"parents":[2147483647,0,0,1,1,2,2,3,3,4,4,5,5,6,6,7,7,8,8,9,9,11,11,12,12,13,13,15,15,16,16,17,17,21,21,22,22,23,23,25,25,27,27,28,28,29,29,31,31,33,33,34,34,35,35],"right_children":[2,4,6,8,10,12,14,16,18,20,-1,22,24,26,-1,28,30,32,-1,-1,-1,34,36,38,-1,40,-1,42,44,46,-1,48,-1,50,52,54,-1,-1,-1,-1,-1,-1,-1,-1,-1,-1,-1,-1,-1,-1,-1,-1,-1,-1,-1],"split_conditions":[1E0,1E0,1E0,1E0,1E0,1E0,1E0,1E0,1E0,1E0,4.7315597E-3,1E0,1E0,1E0,-1.6726842E-3,1E0,1E0,1E0,6.9576185E-3,2.8869202E-3,1.8154894E-3,1E0,1E0,1E0,-1.2195783E-4,1E0,-7.373703E-3,1E0,1E0,1E0,1.3669266E-2,1E0,7.00249E-3,1E0,1E0,1E0,7.454405E-3,1.1363674E-2,1.5913438E-2,-1.2200889E-2,-1.4860818E-2,-5.4933787E-3,3.7571779E-3,-7.0309005E-4,9.469339E-3,5.6602317E-4,1.6376397E-3,-7.005925E-4,-8.395267E-4,1.645126E-3,-1.496494E-3,4.949797E-3,1.0342986E-2,4.6099126E-3,5.4479204E-3],"split_indices":[4,5,3,7,1,0,5,6,2,0,0,5,8,6,0,9,0,0,0,0,0,7,1,6,0,9,0,0,0,1,0,1,0,8,2,2,0,0,0,0,0,0,0,0,0,0,0,0,0,0,0,0,0,0,0],"split_type":[0,0,0,0,0,0,0,0,0,0,0,0,0,0,0,0,0,0,0,0,0,0,0,0,0,0,0,0,0,0,0,0,0,0,0,0,0,0,0,0,0,0,0,0,0,0,0,0,0,0,0,0,0,0,0],"sum_hessian":[1.8646273E4,9.38174E3,9.264533E3,8.404113E3,9.7762634E2,8.890702E3,3.7383102E2,7.349341E3,1.0547727E3,3.1120312E2,6.664233E2,8.427616E3,4.6308624E2,3.2749075E2,4.6340275E1,6.3837954E3,9.655454E2,6.633741E2,3.913986E2,2.8899295E2,2.221017E1,7.5297583E3,8.9785785E2,4.4073563E2,2.2350592E1,2.906534E2,3.6837326E1,5.453224E3,9.305716E2,9.401256E2,2.541977E1,6.3118335E2,3.219073E1,6.6697437E3,8.600143E2,3.1132224E2,5.865356E2,3.8440726E2,5.632837E1,2.6770694E2,2.2946493E1,5.3495703E3,1.03653625E2,8.9681024E2,3.3761314E1,3.53549E2,5.865766E2,8.5321915E1,5.4586145E2,6.103388E3,5.663556E2,7.3960474E2,1.20409584E2,2.3388481E2,7.743743E1],"tree_param":{"num_deleted":"0","num_feature":"10","num_nodes":"55","size_leaf_vector":"1"}},{"base_weights":[2.600978E-5,-2.24723E-1,2.2761743E-1,-2.9841912E-1,4.0845007E-1,2.81643E-1,-1.0549716E0,-3.7415072E-1,2.2910503E-1,2.7885643E-1,4.68461E-3,2.3498228E-1,1.1287804E0,-1.1799761E0,-1.6563223E-3,-4.543707E-1,1.5612379E-1,-4.2782992E-2,6.8891635E-3,2.8582206E-3,1.7981317E-3,1.8556288E-1,6.488078E-1,1.1865556E0,-1.20789766E-4,-1.2342832E0,-7.303012E-3,-5.2641696E-1,-3.2093138E-2,1.22334324E-1,1.3544644E-2,-8.136903E-2,6.9355113E-3,1.364403E-1,5.659623E-1,4.7874194E-1,7.3811524E-3,1.12544475E-2,1.576819E-2,-1.2084519E-2,-1.4725955E-2,-5.43892E-3,3.7201126E-3,-6.9606956E-4,9.379687E-3,5.603788E-4,1.6213025E-3,-6.936675E-4,-8.3114795E-4,1.6286905E-3,-1.4815645E-3,4.9007055E-3,1.0243494E-2,4.564284E-3,5.3945845E-3],"categories":[],"categories_nodes":[],"categories_segments":[],"categories_sizes":[],"default_left":[0,0,0,0,0,0,0,0,0,0,0,0,0,0,0,0,0,0,0,0,0,0,0,0,0,0,0,0,0,0,0,0,0,0,0,0,0,0,0,0,0,0,0,0,0,0,0,0,0,0,0,0,0,0,0],"id":6,"left_children":[1,3,5,7,9,11,13,15,17,19,-1,21,23,25,-1,27,29,31,-1,-1,-1,33,35,37,-1,39,-1,41,43,45,-1,47,-1,49,51,53,-1,-1,-1,-1,-1,-1,-1,-1,-1,-1,-1,-1,-1,-1,-1,-1,-1,-1,-1],"loss_changes":[9.5381744E2,4.3791525E2,6.42291E2,3.3585016E2,7.4797974E0,3.511894E2,4.1460297E1,3.1272363E2,1.320118E2,1.6398811E-1,0E0,1.7224817E2,3.0592041E1,7.1173096E0,0E0,1.9421667E2,3.897023E1,1.8932613E1,0E0,0E0,0E0,1.4064142E2,1.3296936E1,8.7561035E0,0E0,1.5045166E-2,0E0,8.582678E1,3.3965496E1,2.4738998E0,0E0,7.4806213E-3,0E0,5.0197998E1,2.9447723E1,1.7687225E-1,0E0,0E0,0E0,0E0,0E0,0E0,0E0,0E0,0E0,0E0,0E0,0E0,0E0,0E0,0E0,0E0,0E0,0E0,0E0],"parents":[2147483647,0,0,1,1,2,2,3,3,4,4,5,5,6,6,7,7,8,8,9,9,11,11,12,12,13,13,15,15,16,16,17,17,21,21,22,22,23,23,25,25,27,27,28,28,29,29,31,31,33,33,34,34,35,35],"right_children":[2,4,6,8,10,12,14,16,18,20,-1,22,24,26,-1,28,30,32,-1,-1,-1,34,36,38,-1,40,-1,42,44,46,-1,48,-1,50,52,54,-1,-1,-1,-1,-1,-1,-1,-1,-1,-1,-1,-1,-1,-1,-1,-1,-1,-1,-1],"split_conditions":[1E0,1E0,1E0,1E0,1E0,1E0,1E0,1E0,1E0,1E0,4.68461E-3,1E0,1E0,1E0,-1.6563223E-3,1E0,1E0,1E0,6.8891635E-3,2.8582206E-3,1.7981317E-3,1E0,1E0,1E0,-1.20789766E-4,1E0,-7.303012E-3,1E0,1E0,1E0,1.3544644E-2,1E0,6.9355113E-3,1E0,1E0,1E0,7.3811524E-3,1.12544475E-2,1.576819E-2,-1.2084519E-2,-1.4725955E-2,-5.43892E-3,3.7201126E-3,-6.9606956E-4,9.379687E-3,5.603788E-4,1.6213025E-3,-6.936675E-4,-8.3114795E-4,1.6286905E-3,-1.4815645E-3,4.9007055E-3,1.0243494E-2,4.564284E-3,5.3945845E-3],"split_indices":[4,5,3,7,1,0,5,6,2,0,0,5,8,6,0,9,0,0,0,0,0,7,1,6,0,9,0,0,0,1,0,1,0,8,2,2,0,0,0,0,0,0,0,0,0,0,0,0,0,0,0,0,0,0,0],"split_type":[0,0,0,0,0,0,0,0,0,0,0,0,0,0,0,0,0,0,0,0,0,0,0,0,0,0,0,0,0,0,0,0,0,0,0,0,0,0,0,0,0,0,0,0,0,0,0,0,0,0,0,0,0,0,0],"sum_hessian":[1.8645113E4,9.381144E3,9.263969E3,8.403566E3,9.775772E2,8.8902705E3,3.7369812E2,7.3488525E3,1.0547135E3,3.111961E2,6.663811E2,8.427365E3,4.6290585E2,3.2735822E2,4.6339905E1,6.383325E3,9.655273E2,6.633684E2,3.9134506E2,2.8898615E2,2.2209963E1,7.5296196E3,8.9774524E2,4.4055527E2,2.2350592E1,2.9052655E2,3.683167E1,5.4527637E3,9.3056165E2,9.401209E2,2.540638E1,6.311821E2,3.2186275E1,6.6696934E3,8.599267E2,3.113017E2,5.8644354E2,3.8426712E2,5.6288155E1,2.6759225E2,2.2934294E1,5.3491143E3,1.0364949E2,8.968089E2,3.375277E1,3.5354868E2,5.865722E2,8.532181E1,5.4586035E2,6.1033413E3,5.66352E2,7.3955347E2,1.2037321E2,2.3387077E2,7.743094E1],"tree_param":{"num_deleted":"0","num_feature":"10","num_nodes":"55","size_leaf_vector":"1"}},{"base_weights":[2.9401795E-5,-2.2248767E-1,2.253599E-1,-2.9545337E-1,4.0439895E-1,2.788492E-1,-1.0449511E0,-3.70435E-1,2.2684053E-1,2.760898E-1,4.6381787E-3,2.3264447E-1,1.1180593E0,-1.1688321E0,-1.6401241E-3,-4.4986477E-1,1.5458241E-1,-4.234763E-2,6.8215365E-3,2.8298118E-3,1.7809429E-3,1.8371324E-1,6.424333E-1,1.175313E0,-1.1963632E-4,-1.2226547E0,-7.233179E-3,-5.2120465E-1,-3.176342E-2,1.2111412E-1,1.3422297E-2,-8.055816E-2,6.8693254E-3,1.350771E-1,5.603872E-1,4.74023E-1,7.3088068E-3,1.1146937E-2,1.56261E-2,-1.1970082E-2,-1.4593775E-2,-5.3850794E-3,3.6834374E-3,-6.8911986E-4,9.291263E-3,5.54793E-4,1.6051319E-3,-6.86813E-4,-8.2285603E-4,1.6124205E-3,-1.4667851E-3,4.8521594E-3,1.0145459E-2,4.5191534E-3,5.3418432E-3],"categories":[],"categories_nodes":[],"categories_segments":[],"categories_sizes":[],"default_left":[0,0,0,0,0,0,0,0,0,0,0,0,0,0,0,0,0,0,0,0,0,0,0,0,0,0,0,0,0,0,0,0,0,0,0,0,0,0,0,0,0,0,0,0,0,0,0,0,0,0,0,0,0,0,0],"id":7,"left_children":[1,3,5,7,9,11,13,15,17,19,-1,21,23,25,-1,27,29,31,-1,-1,-1,33,35,37,-1,39,-1,41,43,45,-1,47,-1,49,51,53,-1,-1,-1,-1,-1,-1,-1,-1,-1,-1,-1,-1,-1,-1,-1,-1,-1,-1,-1],"loss_changes":[9.348963E2,4.292384E2,6.297838E2,3.292024E2,7.332184E0,3.4448383E2,4.068277E1,3.065495E2,1.2941386E2,1.6043091E-1,0E0,1.6887726E2,3.0014221E1,6.985565E0,0E0,1.9039417E2,3.825463E1,1.8568563E1,0E0,0E0,0E0,1.3788211E2,1.3038879E1,8.619873E0,0E0,2.2064209E-2,0E0,8.413513E1,3.331634E1,2.4247723E0,0E0,7.3189735E-3,0E0,4.920038E1,2.8896027E1,1.739273E-1,0E0,0E0,0E0,0E0,0E0,0E0,0E0,0E0,0E0,0E0,0E0,0E0,0E0,0E0,0E0,0E0,0E0,0E0,0E0],"parents":[2147483647,0,0,1,1,2,2,3,3,4,4,5,5,6,6,7,7,8,8,9,9,11,11,12,12,13,13,15,15,16,16,17,17,21,21,22,22,23,23,25,25,27,27,28,28,29,29,31,31,33,33,34,34,35,35],"right_children":[2,4,6,8,10,12,14,16,18,20,-1,22,24,26,-1,28,30,32,-1,-1,-1,34,36,38,-1,40,-1,42,44,46,-1,48,-1,50,52,54,-1,-1,-1,-1,-1,-1,-1,-1,-1,-1,-1,-1,-1,-1,-1,-1,-1,-1,-1],"split_conditions":[1E0,1E0,1E0,1E0,1E0,1E0,1E0,1E0,1E0,1E0,4.6381787E-3,1E0,1E0,1E0,-1.6401241E-3,1E0,1E0,1E0,6.8215365E-3,2.8298118E-3,1.7809429E-3,1E0,1E0,1E0,-1.1963632E-4,1E0,-7.233179E-3,1E0,1E0,1E0,1.3422297E-2,1E0,6.8693254E-3,1E0,1E0,1E0,7.3088068E-3,1.1146937E-2,1.56261E-2,-1.1970082E-2,-1.4593775E-2,-5.3850794E-3,3.6834374E-3,-6.8911986E-4,9.291263E-3,5.54793E-4,1.6051319E-3,-6.86813E-4,-8.2285603E-4,1.6124205E-3,-1.4667851E-3,4.8521594E-3,1.0145459E-2,4.5191534E-3,5.3418432E-3],"split_indices":[4,5,3,7,1,0,5,6,2,0,0,5,8,6,0,9,0,0,0,0,0,7,1,6,0,9,0,0,0,1,0,1,0,8,2,2,0,0,0,0,0,0,0,0,0,0,0,0,0,0,0,0,0,0,0],"split_type":[0,0,0,0,0,0,0,0,0,0,0,0,0,0,0,0,0,0,0,0,0,0,0,0,0,0,0,0,0,0,0,0,0,0,0,0,0,0,0,0,0,0,0,0,0,0,0,0,0,0,0,0,0,0,0],"sum_hessian":[1.8643762E4,9.380448E3,9.263313E3,8.402929E3,9.775199E2,8.88977E3,3.7354343E2,7.3482837E3,1.0546445E3,3.1118793E2,6.66332E2,8.427074E3,4.6269586E2,3.2720395E2,4.6339478E1,6.382778E3,9.655061E2,6.633618E2,3.9128275E2,2.889782E2,2.2209723E1,7.52946E3,8.9761414E2,4.4034528E2,2.235059E1,2.9037888E2,3.682508E1,5.4522275E3,9.305503E2,9.401153E2,2.5390781E1,6.311807E2,3.2181084E1,6.6696353E3,8.5982477E2,3.112778E2,5.863363E2,3.8410397E2,5.624133E1,2.6745917E2,2.2919724E1,5.3485825E3,1.0364468E2,8.968075E2,3.3742825E1,3.535483E2,5.86567E2,8.532166E1,5.458591E2,6.103287E3,5.663478E2,7.394939E2,1.20330864E2,2.3385442E2,7.7423386E1],"tree_param":{"num_deleted":"0","num_feature":"10","num_nodes":"55","size_leaf_vector":"1"}},{"base_weights":[3.282455E-5,-2.2027671E-1,2.231271E-1,-2.9252002E-1,4.003912E-1,2.760855E-1,-1.035085E0,-3.6676E-1,2.2460064E-1,2.73352E-1,4.5922515E-3,2.3033118E-1,1.1075095E0,-1.1578686E0,-1.6240855E-3,-4.4540864E-1,1.5305665E-1,-4.1916423E-2,6.754721E-3,2.8017005E-3,1.7639229E-3,1.8188275E-1,6.361341E-1,1.1642536E0,-1.1848938E-4,-1.2112206E0,-7.1641854E-3,-5.160508E-1,-3.1436767E-2,1.199061E-1,1.3302141E-2,-7.975505E-2,6.803919E-3,1.3372788E-1,5.5487597E-1,4.6935537E-1,7.2373506E-3,1.1041102E-2,1.5487045E-2,-1.1857531E-2,-1.4464196E-2,-5.3318427E-3,3.647147E-3,-6.822357E-4,9.204036E-3,5.492614E-4,1.5891242E-3,-6.800255E-4,-8.1464346E-4,1.5963172E-3,-1.4521552E-3,4.8041455E-3,1.0048846E-2,4.4745095E-3,5.289689E-3],"categories":[],"categories_nodes":[],"categories_segments":[],"categories_sizes":[],"default_left":[0,0,0,0,0,0,0,0,0,0,0,0,0,0,0,0,0,0,0,0,0,0,0,0,0,0,0,0,0,0,0,0,0,0,0,0,0,0,0,0,0,0,0,0,0,0,0,0,0,0,0,0,0,0,0],"id":8,"left_children":[1,3,5,7,9,11,13,15,17,19,-1,21,23,25,-1,27,29,31,-1,-1,-1,33,35,37,-1,39,-1,41,43,45,-1,47,-1,49,51,53,-1,-1,-1,-1,-1,-1,-1,-1,-1,-1,-1,-1,-1,-1,-1,-1,-1,-1,-1],"loss_changes":[9.163599E2,4.2073743E2,6.17544E2,3.2268994E2,7.187668E0,3.3793903E2,3.9925568E1,3.0050165E2,1.26870384E2,1.5695381E-1,0E0,1.65578E2,2.945111E1,6.8580933E0,0E0,1.866521E2,3.755593E1,1.821184E1,0E0,0E0,0E0,1.3518044E2,1.2786896E1,8.489441E0,0E0,2.9266357E-2,0E0,8.247754E1,3.268073E1,2.3766327E0,0E0,7.15971E-3,0E0,4.8222755E1,2.8358093E1,1.7105103E-1,0E0,0E0,0E0,0E0,0E0,0E0,0E0,0E0,0E0,0E0,0E0,0E0,0E0,0E0,0E0,0E0,0E0,0E0,0E0],"parents":[2147483647,0,0,1,1,2,2,3,3,4,4,5,5,6,6,7,7,8,8,9,9,11,11,12,12,13,13,15,15,16,16,17,17,21,21,22,22,23,23,25,25,27,27,28,28,29,29,31,31,33,33,34,34,35,35],"right_children":[2,4,6,8,10,12,14,16,18,20,-1,22,24,26,-1,28,30,32,-1,-1,-1,34,36,38,-1,40,-1,42,44,46,-1,48,-1,50,52,54,-1,-1,-1,-1,-1,-1,-1,-1,-1,-1,-1,-1,-1,-1,-1,-1,-1,-1,-1],"split_conditions":[1E0,1E0,1E0,1E0,1E0,1E0,1E0,1E0,1E0,1E0,4.5922515E-3,1E0,1E0,1E0,-1.6240855E-3,1E0,1E0,1E0,6.754721E-3,2.8017005E-3,1.7639229E-3,1E0,1E0,1E0,-1.1848938E-4,1E0,-7.1641854E-3,1E0,1E0,1E0,1.3302141E-2,1E0,6.803919E-3,1E0,1E0,1E0,7.2373506E-3,1.1041102E-2,1.5487045E-2,-1.1857531E-2,-1.4464196E-2,-5.3318427E-3,3.647147E-3,-6.822357E-4,9.204036E-3,5.492614E-4,1.5891242E-3,-6.800255E-4,-8.1464346E-4,1.5963172E-3,-1.4521552E-3,4.8041455E-3,1.0048846E-2,4.4745095E-3,5.289689E-3],"split_indices":[4,5,3,7,1,0,5,6,2,0,0,5,8,6,0,9,0,0,0,0,0,7,1,6,0,9,0,0,0,1,0,1,0,8,2,2,0,0,0,0,0,0,0,0,0,0,0,0,0,0,0,0,0,0,0],"split_type":[0,0,0,0,0,0,0,0,0,0,0,0,0,0,0,0,0,0,0,0,0,0,0,0,0,0,0,0,0,0,0,0,0,0,0,0,0,0,0,0,0,0,0,0,0,0,0,0,0,0,0,0,0,0,0],"sum_hessian":[1.8642227E4,9.379659E3,9.262566E3,8.402204E3,9.774549E2,8.889199E3,3.7336758E2,7.347638E3,1.0545663E3,3.1117865E2,6.6627625E2,8.426742E3,4.6245715E2,3.270286E2,4.6338997E1,6.382156E3,9.6548206E2,6.633543E2,3.912119E2,2.889692E2,2.2209448E1,7.529277E3,8.974651E2,4.4010657E2,2.235059E1,2.90211E2,3.6817596E1,5.4516187E3,9.305374E2,9.40109E2,2.5373045E1,6.3117914E2,3.2175182E1,6.6695684E3,8.597088E2,3.1125058E2,5.862145E2,3.839185E2,5.6188087E1,2.6730814E2,2.2902843E1,5.3479795E3,1.03639206E2,8.968059E2,3.3731506E1,3.5354788E2,5.8656116E2,8.532151E1,5.4585767E2,6.103225E3,5.663431E2,7.394261E2,1.2028273E2,2.338358E2,7.741478E1],"tree_param":{"num_deleted":"0","num_feature":"10","num_nodes":"55","size_leaf_vector":"1"}},{"base_weights":[3.6155325E-5,-2.1808985E-1,2.2091837E-1,-2.896187E-1,3.9642632E-1,2.7335107E-1,-1.0253688E0,-3.6312515E-1,2.2238486E-1,2.706422E-1,4.546826E-3,2.2804181E-1,1.0971256E0,-1.1470803E0,-1.6082058E-3,-4.4100165E-1,1.5154633E-1,-4.148962E-2,6.6887024E-3,2.7738777E-3,1.7470657E-3,1.8007086E-1,6.2990904E-1,1.1533716E0,-1.17355456E-4,-1.1999753E0,-7.096014E-3,-5.109546E-1,-3.111349E-2,1.18710116E-1,1.3184117E-2,-7.895994E-2,6.739276E-3,1.3239211E-1,5.494275E-1,4.6473837E-1,7.1667717E-3,1.0936891E-2,1.5350916E-2,-1.1746806E-2,-1.4337127E-2,-5.2792025E-3,3.6112368E-3,-6.754205E-4,9.117982E-3,5.43784E-4,1.5732769E-3,-6.7330746E-4,-8.065122E-4,1.5803747E-3,-1.4376721E-3,4.756657E-3,9.953621E-3,4.430347E-3,5.238111E-3],"categories":[],"categories_nodes":[],"categories_segments":[],"categories_sizes":[],"default_left":[0,0,0,0,0,0,0,0,0,0,0,0,0,0,0,0,0,0,0,0,0,0,0,0,0,0,0,0,0,0,0,0,0,0,0,0,0,0,0,0,0,0,0,0,0,0,0,0,0,0,0,0,0,0,0],"id":9,"left_children":[1,3,5,7,9,11,13,15,17,19,-1,21,23,25,-1,27,29,31,-1,-1,-1,33,35,37,-1,39,-1,41,43,45,-1,47,-1,49,51,53,-1,-1,-1,-1,-1,-1,-1,-1,-1,-1,-1,-1,-1,-1,-1,-1,-1,-1,-1],"loss_changes":[8.981991E2,4.1240878E2,6.055649E2,3.163097E2,7.0462646E0,3.3154926E2,3.9187836E1,2.945774E2,1.2438014E2,1.5355492E-1,0E0,1.6234906E2,2.8902283E1,6.7347107E0,0E0,1.8298755E2,3.6873642E1,1.7862282E1,0E0,0E0,0E0,1.3253532E2,1.2540955E1,8.364258E0,0E0,3.6468506E-2,0E0,8.0854126E1,3.205839E1,2.3294592E0,0E0,7.0035458E-3,0E0,4.726451E1,2.7833557E1,1.6822815E-1,0E0,0E0,0E0,0E0,0E0,0E0,0E0,0E0,0E0,0E0,0E0,0E0,0E0,0E0,0E0,0E0,0E0,0E0,0E0],"parents":[2147483647,0,0,1,1,2,2,3,3,4,4,5,5,6,6,7,7,8,8,9,9,11,11,12,12,13,13,15,15,16,16,17,17,21,21,22,22,23,23,25,25,27,27,28,28,29,29,31,31,33,33,34,34,35,35],"right_children":[2,4,6,8,10,12,14,16,18,20,-1,22,24,26,-1,28,30,32,-1,-1,-1,34,36,38,-1,40,-1,42,44,46,-1,48,-1,50,52,54,-1,-1,-1,-1,-1,-1,-1,-1,-1,-1,-1,-1,-1,-1,-1,-1,-1,-1,-1],"split_conditions":[1E0,1E0,1E0,1E0,1E0,1E0,1E0,1E0,1E0,1E0,4.546826E-3,1E0,1E0,1E0,-1.6082058E-3,1E0,1E0,1E0,6.6887024E-3,2.7738777E-3,1.7470657E-3,1E0,1E0,1E0,-1.17355456E-4,1E0,-7.096014E-3,1E0,1E0,1E0,1.3184117E-2,1E0,6.739276E-3,1E0,1E0,1E0,7.1667717E-3,1.0936891E-2,1.5350916E-2,-1.1746806E-2,-1.4337127E-2,-5.2792025E-3,3.6112368E-3,-6.754205E-4,9.117982E-3,5.43784E-4,1.5732769E-3,-6.7330746E-4,-8.065122E-4,1.5803747E-3,-1.4376721E-3,4.756657E-3,9.953621E-3,4.430347E-3,5.238111E-3],"split_indices":[4,5,3,7,1,0,5,6,2,0,0,5,8,6,0,9,0,0,0,0,0,7,1,6,0,9,0,0,0,1,0,1,0,8,2,2,0,0,0,0,0,0,0,0,0,0,0,0,0,0,0,0,0,0,0],"split_type":[0,0,0,0,0,0,0,0,0,0,0,0,0,0,0,0,0,0,0,0,0,0,0,0,0,0,0,0,0,0,0,0,0,0,0,0,0,0,0,0,0,0,0,0,0,0,0,0,0,0,0,0,0,0,0],"sum_hessian":[1.864051E4,9.378777E3,9.261733E3,8.401395E3,9.773822E2,8.8885625E3,3.731712E2,7.346916E3,1.0544788E3,3.1116827E2,6.6621387E2,8.426372E3,4.6219064E2,3.2683276E2,4.6338455E1,6.381461E3,9.654552E2,6.63346E2,3.911328E2,2.8895914E2,2.2209143E1,7.529073E3,8.9729865E2,4.3984006E2,2.235059E1,2.9002353E2,3.6809227E1,5.450938E3,9.305229E2,9.40102E2,2.5353231E1,6.311774E2,3.216859E1,6.669494E3,8.595794E2,3.1122025E2,5.8607837E2,3.837114E2,5.6128643E1,2.671398E2,2.288373E1,5.3473047E3,1.03633095E2,8.96804E2,3.3718864E1,3.5354742E2,5.8655457E2,8.5321335E1,5.458561E2,6.1031562E3,5.6633777E2,7.3935046E2,1.2022898E2,2.3381508E2,7.740518E1],"tree_param":{"num_deleted":"0","num_feature":"10","num_nodes":"55","size_leaf_vector":"1"}},{"base_weights":[3.9263476E-5,-2.1592683E-1,2.1873331E-1,-2.86749E-1,3.925036E-1,2.7064553E-1,-1.0157984E0,-3.5952997E-1,2.2019266E-1,2.679602E-1,4.50189E-3,2.25776E-1,1.0869033E0,-1.1364619E0,-1.5924855E-3,-4.3664318E-1,1.500515E-1,-4.106732E-2,6.623462E-3,2.7463408E-3,1.7303741E-3,1.7827728E-1,6.237564E-1,1.1426622E0,-1.1623226E-4,-1.1889124E0,-7.028651E-3,-5.0591516E-1,-3.0793812E-2,1.1752629E-1,1.3068158E-2,-7.817291E-2,6.6753845E-3,1.3106959E-1,5.440409E-1,4.6017158E-1,7.0970426E-3,1.083426E-2,1.5217619E-2,-1.163785E-2,-1.4212485E-2,-5.2271485E-3,3.5756996E-3,-6.68676E-4,9.033068E-3,5.383618E-4,1.5575914E-3,-6.6665036E-4,-7.9846475E-4,1.5645906E-3,-1.4233373E-3,4.7096857E-3,9.859743E-3,4.3866625E-3,5.1871026E-3],"categories":[],"categories_nodes":[],"categories_segments":[],"categories_sizes":[],"default_left":[0,0,0,0,0,0,0,0,0,0,0,0,0,0,0,0,0,0,0,0,0,0,0,0,0,0,0,0,0,0,0,0,0,0,0,0,0,0,0,0,0,0,0,0,0,0,0,0,0,0,0,0,0,0,0],"id":10,"left_children":[1,3,5,7,9,11,13,15,17,19,-1,21,23,25,-1,27,29,31,-1,-1,-1,33,35,37,-1,39,-1,41,43,45,-1,47,-1,49,51,53,-1,-1,-1,-1,-1,-1,-1,-1,-1,-1,-1,-1,-1,-1,-1,-1,-1,-1,-1],"loss_changes":[8.80406E2,4.0424878E2,5.9383966E2,3.1005853E2,6.9078217E0,3.2531018E2,3.8468872E1,2.88774E2,1.2194186E2,1.5023041E-1,0E0,1.5918845E2,2.8366943E1,6.6151733E0,0E0,1.7939954E2,3.620721E1,1.7519747E1,0E0,0E0,0E0,1.2994554E2,1.230069E1,8.244324E0,0E0,4.3792725E-2,0E0,7.9263306E1,3.1448965E1,2.2832317E0,0E0,6.8523884E-3,0E0,4.632538E1,2.7321793E1,1.6546631E-1,0E0,0E0,0E0,0E0,0E0,0E0,0E0,0E0,0E0,0E0,0E0,0E0,0E0,0E0,0E0,0E0,0E0,0E0,0E0],"parents":[2147483647,0,0,1,1,2,2,3,3,4,4,5,5,6,6,7,7,8,8,9,9,11,11,12,12,13,13,15,15,16,16,17,17,21,21,22,22,23,23,25,25,27,27,28,28,29,29,31,31,33,33,34,34,35,35],"right_children":[2,4,6,8,10,12,14,16,18,20,-1,22,24,26,-1,28,30,32,-1,-1,-1,34,36,38,-1,40,-1,42,44,46,-1,48,-1,50,52,54,-1,-1,-1,-1,-1,-1,-1,-1,-1,-1,-1,-1,-1,-1,-1,-1,-1,-1,-1],"split_conditions":[1E0,1E0,1E0,1E0,1E0,1E0,1E0,1E0,1E0,1E0,4.50189E-3,1E0,1E0,1E0,-1.5924855E-3,1E0,1E0,1E0,6.623462E-3,2.7463408E-3,1.7303741E-3,1E0,1E0,1E0,-1.1623226E-4,1E0,-7.028651E-3,1E0,1E0,1E0,1.3068158E-2,1E0,6.6753845E-3,1E0,1E0,1E0,7.0970426E-3,1.083426E-2,1.5217619E-2,-1.163785E-2,-1.4212485E-2,-5.2271485E-3,3.5756996E-3,-6.68676E-4,9.033068E-3,5.383618E-4,1.5575914E-3,-6.6665036E-4,-7.9846475E-4,1.5645906E-3,-1.4233373E-3,4.7096857E-3,9.859743E-3,4.3866625E-3,5.1871026E-3],"split_indices":[4,5,3,7,1,0,5,6,2,0,0,5,8,6,0,9,0,0,0,0,0,7,1,6,0,9,0,0,0,1,0,1,0,8,2,2,0,0,0,0,0,0,0,0,0,0,0,0,0,0,0,0,0,0,0],"split_type":[0,0,0,0,0,0,0,0,0,0,0,0,0,0,0,0,0,0,0,0,0,0,0,0,0,0,0,0,0,0,0,0,0,0,0,0,0,0,0,0,0,0,0,0,0,0,0,0,0,0,0,0,0,0,0],"sum_hessian":[1.8638623E4,9.377807E3,9.260816E3,8.400505E3,9.773022E2,8.887861E3,3.7295502E2,7.346122E3,1.0543824E3,3.1115686E2,6.661453E2,8.425965E3,4.618972E2,3.2661716E2,4.6337856E1,6.380697E3,9.6542566E2,6.6333673E2,3.910457E2,2.8894806E2,2.2208805E1,7.528849E3,8.971154E2,4.395466E2,2.2350588E1,2.8981714E2,3.6800014E1,5.4501895E3,9.3050684E2,9.4009424E2,2.5331406E1,6.311754E2,3.2161327E1,6.669412E3,8.594369E2,3.111868E2,5.859286E2,3.8348343E2,5.606318E1,2.6695468E2,2.2862448E1,5.3465635E3,1.0362636E2,8.968019E2,3.3704945E1,3.535469E2,5.865473E2,8.532115E1,5.4585425E2,6.10308E3,5.663319E2,7.392671E2,1.2016979E2,2.3379219E2,7.7394615E1],"tree_param":{"num_deleted":"0","num_feature":"10","num_nodes":"55","size_leaf_vector":"1"}},{"base_weights":[4.2490345E-5,-2.1378726E-1,2.1657215E-1,-2.8391048E-1,3.8862252E-1,2.6796907E-1,-1.0063698E0,-3.5597384E-1,2.1802382E-1,2.6530534E-1,4.4574416E-3,2.2353408E-1,1.0768377E0,-1.1260086E0,-1.5769175E-3,-4.323324E-1,1.4857171E-1,-4.0649638E-2,6.558992E-3,2.7190836E-3,1.7138429E-3,1.7650248E-1,6.176754E-1,1.1321199E0,-1.15120485E-4,-1.178027E0,-6.9620833E-3,-5.0093156E-1,-3.047748E-2,1.1635422E-1,1.2954193E-2,-7.739403E-2,6.612229E-3,1.2976088E-1,5.3871536E-1,4.5565385E-1,7.0281574E-3,1.0733163E-2,1.5087052E-2,-1.1530613E-2,-1.4090192E-2,-5.175672E-3,3.5405331E-3,-6.619993E-4,8.949271E-3,5.3299376E-4,1.5420617E-3,-6.600653E-4,-7.9050026E-4,1.5489705E-3,-1.4091426E-3,4.6632285E-3,9.767181E-3,4.343445E-3,5.136649E-3],"categories":[],"categories_nodes":[],"categories_segments":[],"categories_sizes":[],"default_left":[0,0,0,0,0,0,0,0,0,0,0,0,0,0,0,0,0,0,0,0,0,0,0,0,0,0,0,0,0,0,0,0,0,0,0,0,0,0,0,0,0,0,0,0,0,0,0,0,0,0,0,0,0,0,0],"id":11,"left_children":[1,3,5,7,9,11,13,15,17,19,-1,21,23,25,-1,27,29,31,-1,-1,-1,33,35,37,-1,39,-1,41,43,45,-1,47,-1,49,51,53,-1,-1,-1,-1,-1,-1,-1,-1,-1,-1,-1,-1,-1,-1,-1,-1,-1,-1,-1],"loss_changes":[8.629747E2,3.9625388E2,5.8236255E2,3.0393402E2,6.7723694E0,3.1921606E2,3.7768036E1,2.830888E2,1.19554535E2,1.469822E-1,0E0,1.5609415E2,2.7844727E1,6.499237E0,0E0,1.758855E2,3.5556114E1,1.7184082E1,0E0,0E0,0E0,1.2740938E2,1.2066132E1,8.129272E0,0E0,5.114746E-2,0E0,7.770532E1,3.0852165E1,2.237917E0,0E0,6.7031384E-3,0E0,4.540497E1,2.6822464E1,1.627655E-1,0E0,0E0,0E0,0E0,0E0,0E0,0E0,0E0,0E0,0E0,0E0,0E0,0E0,0E0,0E0,0E0,0E0,0E0,0E0],"parents":[2147483647,0,0,1,1,2,2,3,3,4,4,5,5,6,6,7,7,8,8,9,9,11,11,12,12,13,13,15,15,16,16,17,17,21,21,22,22,23,23,25,25,27,27,28,28,29,29,31,31,33,33,34,34,35,35],"right_children":[2,4,6,8,10,12,14,16,18,20,-1,22,24,26,-1,28,30,32,-1,-1,-1,34,36,38,-1,40,-1,42,44,46,-1,48,-1,50,52,54,-1,-1,-1,-1,-1,-1,-1,-1,-1,-1,-1,-1,-1,-1,-1,-1,-1,-1,-1],"split_conditions":[1E0,1E0,1E0,1E0,1E0,1E0,1E0,1E0,1E0,1E0,4.4574416E-3,1E0,1E0,1E0,-1.5769175E-3,1E0,1E0,1E0,6.558992E-3,2.7190836E-3,1.7138429E-3,1E0,1E0,1E0,-1.15120485E-4,1E0,-6.9620833E-3,1E0,1E0,1E0,1.2954193E-2,1E0,6.612229E-3,1E0,1E0,1E0,7.0281574E-3,1.0733163E-2,1.5087052E-2,-1.1530613E-2,-1.4090192E-2,-5.175672E-3,3.5405331E-3,-6.619993E-4,8.949271E-3,5.3299376E-4,1.5420617E-3,-6.600653E-4,-7.9050026E-4,1.5489705E-3,-1.4091426E-3,4.6632285E-3,9.767181E-3,4.343445E-3,5.136649E-3],"split_indices":[4,5,3,7,1,0,5,6,2,0,0,5,8,6,0,9,0,0,0,0,0,7,1,6,0,9,0,0,0,1,0,1,0,8,2,2,0,0,0,0,0,0,0,0,0,0,0,0,0,0,0,0,0,0,0],"split_type":[0,0,0,0,0,0,0,0,0,0,0,0,0,0,0,0,0,0,0,0,0,0,0,0,0,0,0,0,0,0,0,0,0,0,0,0,0,0,0,0,0,0,0,0,0,0,0,0,0,0,0,0,0,0,0],"sum_hessian":[1.8636568E4,9.37675E3,9.259818E3,8.399535E3,9.772151E2,8.887099E3,3.7271964E2,7.3452573E3,1.0542776E3,3.1114444E2,6.660707E2,8.4255205E3,4.6157764E2,3.2638242E2,4.6337204E1,6.3798643E3,9.6539343E2,6.6332666E2,3.9095087E2,2.88936E2,2.2208439E1,7.528605E3,8.969159E2,4.3922705E2,2.2350584E1,2.8959247E2,3.6789978E1,5.4493745E3,9.304895E2,9.400858E2,2.530763E1,6.311733E2,3.2153416E1,6.669323E3,8.5928174E2,3.1115042E2,5.8576544E2,3.8323517E2,5.5991894E1,2.667534E2,2.2839066E1,5.3457554E3,1.03619026E2,8.9679974E2,3.368978E1,3.5354633E2,5.865394E2,8.532094E1,5.4585236E2,6.1029976E3,5.6632556E2,7.391764E2,1.2010534E2,2.3376732E2,7.73831E1],"tree_param":{"num_deleted":"0","num_feature":"10","num_nodes":"55","size_leaf_vector":"1"}},{"base_weights":[4.5434113E-5,-2.1167095E-1,2.1443391E-1,-2.811028E-1,3.847825E-1,2.653206E-1,-9.97079E-1,-3.5245642E-1,2.1587822E-1,2.6267794E-1,4.413468E-3,2.2131503E-1,1.0669242E0,-1.1157157E0,-1.5615065E-3,-4.2806894E-1,1.4710706E-1,-4.023587E-2,6.4952727E-3,2.6921092E-3,1.6974712E-3,1.7474544E-1,6.1166453E-1,1.1217403E0,-1.1401784E-4,-1.1673137E0,-6.8962914E-3,-4.960034E-1,-3.0164272E-2,1.1519407E-1,1.2842163E-2,-7.662254E-2,6.5497947E-3,1.2846498E-1,5.334494E-1,4.5118466E-1,6.960095E-3,1.0633559E-2,1.4959122E-2,-1.1425044E-2,-1.3970172E-2,-5.1247687E-3,3.5057336E-3,-6.5538764E-4,8.866561E-3,5.2767876E-4,1.5266911E-3,-6.5354083E-4,-7.826115E-4,1.5335041E-3,-1.3950943E-3,4.6172733E-3,9.675899E-3,4.3006893E-3,5.0867465E-3],"categories":[],"categories_nodes":[],"categories_segments":[],"categories_sizes":[],"default_left":[0,0,0,0,0,0,0,0,0,0,0,0,0,0,0,0,0,0,0,0,0,0,0,0,0,0,0,0,0,0,0,0,0,0,0,0,0,0,0,0,0,0,0,0,0,0,0,0,0,0,0,0,0,0,0],"id":12,"left_children":[1,3,5,7,9,11,13,15,17,19,-1,21,23,25,-1,27,29,31,-1,-1,-1,33,35,37,-1,39,-1,41,43,45,-1,47,-1,49,51,53,-1,-1,-1,-1,-1,-1,-1,-1,-1,-1,-1,-1,-1,-1,-1,-1,-1,-1,-1],"loss_changes":[8.4589557E2,3.884204E2,5.7112646E2,2.9793372E2,6.6397247E0,3.1326276E2,3.7084564E1,2.7751965E2,1.1721654E2,1.4380264E-1,0E0,1.5306516E2,2.7335205E1,6.386963E0,0E0,1.724447E2,3.4919838E1,1.6855097E1,0E0,0E0,0E0,1.24925964E2,1.1836945E1,8.01886E0,0E0,5.8563232E-2,0E0,7.617871E1,3.0267624E1,2.1935215E0,0E0,6.5579414E-3,0E0,4.4502876E1,2.6335007E1,1.6012192E-1,0E0,0E0,0E0,0E0,0E0,0E0,0E0,0E0,0E0,0E0,0E0,0E0,0E0,0E0,0E0,0E0,0E0,0E0,0E0],"parents":[2147483647,0,0,1,1,2,2,3,3,4,4,5,5,6,6,7,7,8,8,9,9,11,11,12,12,13,13,15,15,16,16,17,17,21,21,22,22,23,23,25,25,27,27,28,28,29,29,31,31,33,33,34,34,35,35],"right_children":[2,4,6,8,10,12,14,16,18,20,-1,22,24,26,-1,28,30,32,-1,-1,-1,34,36,38,-1,40,-1,42,44,46,-1,48,-1,50,52,54,-1,-1,-1,-1,-1,-1,-1,-1,-1,-1,-1,-1,-1,-1,-1,-1,-1,-1,-1],"split_conditions":[1E0,1E0,1E0,1E0,1E0,1E0,1E0,1E0,1E0,1E0,4.413468E-3,1E0,1E0,1E0,-1.5615065E-3,1E0,1E0,1E0,6.4952727E-3,2.6921092E-3,1.6974712E-3,1E0,1E0,1E0,-1.1401784E-4,1E0,-6.8962914E-3,1E0,1E0,1E0,1.2842163E-2,1E0,6.5497947E-3,1E0,1E0,1E0,6.960095E-3,1.0633559E-2,1.4959122E-2,-1.1425044E-2,-1.3970172E-2,-5.1247687E-3,3.5057336E-3,-6.5538764E-4,8.866561E-3,5.2767876E-4,1.5266911E-3,-6.5354083E-4,-7.826115E-4,1.5335041E-3,-1.3950943E-3,4.6172733E-3,9.675899E-3,4.3006893E-3,5.0867465E-3],"split_indices":[4,5,3,7,1,0,5,6,2,0,0,5,8,6,0,9,0,0,0,0,0,7,1,6,0,9,0,0,0,1,0,1,0,8,2,2,0,0,0,0,0,0,0,0,0,0,0,0,0,0,0,0,0,0,0],"split_type":[0,0,0,0,0,0,0,0,0,0,0,0,0,0,0,0,0,0,0,0,0,0,0,0,0,0,0,0,0,0,0,0,0,0,0,0,0,0,0,0,0,0,0,0,0,0,0,0,0,0,0,0,0,0,0],"sum_hessian":[1.863435E4,9.375609E3,9.25874E3,8.398488E3,9.771211E2,8.886275E3,3.724656E2,7.3443237E3,1.0541644E3,3.11131E2,6.6599005E2,8.425042E3,4.6123288E2,3.2612912E2,4.6336502E1,6.3789653E3,9.6535864E2,6.6331586E2,3.9084854E2,2.8892297E2,2.220804E1,7.5283413E3,8.967006E2,4.388823E2,2.235058E1,2.8934998E2,3.677915E1,5.448494E3,9.3047076E2,9.4007666E2,2.5281967E1,6.3117096E2,3.214488E1,6.669227E3,8.591143E2,3.1111115E2,5.855895E2,3.8296735E2,5.591496E1,2.6653632E2,2.2813646E1,5.3448833E3,1.0361112E2,8.9679736E2,3.3673412E1,3.5354572E2,5.8653094E2,8.53207E1,5.458503E2,6.102908E3,5.663187E2,7.390785E2,1.200358E2,2.3374046E2,7.737068E1],"tree_param":{"num_deleted":"0","num_feature":"10","num_nodes":"55","size_leaf_vector":"1"}},{"base_weights":[4.8493508E-5,-2.095772E-1,2.123187E-1,-2.7832514E-1,3.809831E-1,2.6270023E-1,-9.8792243E-1,-3.489767E-1,2.1375547E-1,2.6007727E-1,4.369968E-3,2.1911906E-1,1.0571592E0,-1.1055787E0,-1.5462452E-3,-4.2385146E-1,1.4565721E-1,-3.9826263E-2,6.4322934E-3,2.66541E-3,1.6812591E-3,1.7300652E-1,6.057224E-1,1.1115189E0,-1.12926034E-4,-1.1567676E0,-6.8312613E-3,-4.9112895E-1,-2.98545E-2,1.14045486E-1,1.2732017E-2,-7.585867E-2,6.488074E-3,1.2718236E-1,5.282424E-1,4.467636E-1,6.8928367E-3,1.053541E-2,1.483374E-2,-1.1321098E-2,-1.385235E-2,-5.0744205E-3,3.471293E-3,-6.4884423E-4,8.784915E-3,5.2241894E-4,1.5114727E-3,-6.4708514E-4,-7.748001E-4,1.518196E-3,-1.381187E-3,4.571814E-3,9.585868E-3,4.2583924E-3,5.0373883E-3],"categories":[],"categories_nodes":[],"categories_segments":[],"categories_sizes":[],"default_left":[0,0,0,0,0,0,0,0,0,0,0,0,0,0,0,0,0,0,0,0,0,0,0,0,0,0,0,0,0,0,0,0,0,0,0,0,0,0,0,0,0,0,0,0,0,0,0,0,0,0,0,0,0,0,0],"id":13,"left_children":[1,3,5,7,9,11,13,15,17,19,-1,21,23,25,-1,27,29,31,-1,-1,-1,33,35,37,-1,39,-1,41,43,45,-1,47,-1,49,51,53,-1,-1,-1,-1,-1,-1,-1,-1,-1,-1,-1,-1,-1,-1,-1,-1,-1,-1,-1],"loss_changes":[8.291613E2,3.80745E2,5.60126E2,2.9205444E2,6.5098724E0,3.0744592E2,3.6418E1,2.720631E2,1.1492694E2,1.4069557E-1,0E0,1.500993E2,2.6837952E1,6.2780457E0,0E0,1.6907434E2,3.429798E1,1.6532688E1,0E0,0E0,0E0,1.22493744E2,1.1612976E1,7.912842E0,0E0,6.600952E-2,0E0,7.4683105E1,2.96951E1,2.149993E0,0E0,6.4148903E-3,0E0,4.3618797E1,2.5859146E1,1.5752792E-1,0E0,0E0,0E0,0E0,0E0,0E0,0E0,0E0,0E0,0E0,0E0,0E0,0E0,0E0,0E0,0E0,0E0,0E0,0E0],"parents":[2147483647,0,0,1,1,2,2,3,3,4,4,5,5,6,6,7,7,8,8,9,9,11,11,12,12,13,13,15,15,16,16,17,17,21,21,22,22,23,23,25,25,27,27,28,28,29,29,31,31,33,33,34,34,35,35],"right_children":[2,4,6,8,10,12,14,16,18,20,-1,22,24,26,-1,28,30,32,-1,-1,-1,34,36,38,-1,40,-1,42,44,46,-1,48,-1,50,52,54,-1,-1,-1,-1,-1,-1,-1,-1,-1,-1,-1,-1,-1,-1,-1,-1,-1,-1,-1],"split_conditions":[1E0,1E0,1E0,1E0,1E0,1E0,1E0,1E0,1E0,1E0,4.369968E-3,1E0,1E0,1E0,-1.5462452E-3,1E0,1E0,1E0,6.4322934E-3,2.66541E-3,1.6812591E-3,1E0,1E0,1E0,-1.12926034E-4,1E0,-6.8312613E-3,1E0,1E0,1E0,1.2732017E-2,1E0,6.488074E-3,1E0,1E0,1E0,6.8928367E-3,1.053541E-2,1.483374E-2,-1.1321098E-2,-1.385235E-2,-5.0744205E-3,3.471293E-3,-6.4884423E-4,8.784915E-3,5.2241894E-4,1.5114727E-3,-6.4708514E-4,-7.748001E-4,1.518196E-3,-1.381187E-3,4.571814E-3,9.585868E-3,4.2583924E-3,5.0373883E-3],"split_indices":[4,5,3,7,1,0,5,6,2,0,0,5,8,6,0,9,0,0,0,0,0,7,1,6,0,9,0,0,0,1,0,1,0,8,2,2,0,0,0,0,0,0,0,0,0,0,0,0,0,0,0,0,0,0,0],"split_type":[0,0,0,0,0,0,0,0,0,0,0,0,0,0,0,0,0,0,0,0,0,0,0,0,0,0,0,0,0,0,0,0,0,0,0,0,0,0,0,0,0,0,0,0,0,0,0,0,0,0,0,0,0,0,0],"sum_hessian":[1.8631975E4,9.374388E3,9.257587E3,8.397367E3,9.770204E2,8.885393E3,3.7219363E2,7.343324E3,1.0540433E3,3.1111667E2,6.6590375E2,8.424529E3,4.6086368E2,3.2585788E2,4.633575E1,6.378003E3,9.6532135E2,6.6330426E2,3.90739E2,2.8890906E2,2.2207617E1,7.528059E3,8.964701E2,4.385131E2,2.235058E1,2.8909033E2,3.6767548E1,5.4475522E3,9.304506E2,9.400669E2,2.525447E1,6.311685E2,3.213573E1,6.669124E3,8.5893506E2,3.110691E2,5.85401E2,3.826805E2,5.5832573E1,2.6630408E2,2.2786253E1,5.3439497E3,1.0360266E2,8.9679474E2,3.365588E1,3.5354504E2,5.8652185E2,8.532046E1,5.458481E2,6.1028125E3,5.6631134E2,7.3897375E2,1.1996133E2,2.337117E2,7.735738E1],"tree_param":{"num_deleted":"0","num_feature":"10","num_nodes":"55","size_leaf_vector":"1"}},{"base_weights":[5.155934E-5,-2.0750579E-1,2.1022607E-1,-2.7557716E-1,3.7722367E-1,2.6010743E-1,-9.7889674E-1,-3.455342E-1,2.1165518E-1,2.5750297E-1,4.326932E-3,2.1694577E-1,1.0475382E0,-1.0955933E0,-1.5311348E-3,-4.196795E-1,1.4422221E-1,-3.9421093E-2,6.3700434E-3,2.6389821E-3,1.6652049E-3,1.7128533E-1,5.998481E-1,1.1014512E0,-1.1184668E-4,-1.1463841E0,-6.7669796E-3,-4.863077E-1,-2.9547742E-2,1.1290864E-1,1.2623689E-2,-7.510268E-2,6.4270487E-3,1.2591273E-1,5.2309304E-1,4.4238958E-1,6.826372E-3,1.0438674E-2,1.471082E-2,-1.1218728E-2,-1.3736659E-2,-5.0246227E-3,3.4372115E-3,-6.4236426E-4,8.704314E-3,5.1721325E-4,1.4964099E-3,-6.406902E-4,-7.6707016E-4,1.5030425E-3,-1.3674174E-3,4.5268415E-3,9.497054E-3,4.2165425E-3,4.9885646E-3],"categories":[],"categories_nodes":[],"categories_segments":[],"categories_sizes":[],"default_left":[0,0,0,0,0,0,0,0,0,0,0,0,0,0,0,0,0,0,0,0,0,0,0,0,0,0,0,0,0,0,0,0,0,0,0,0,0,0,0,0,0,0,0,0,0,0,0,0,0,0,0,0,0,0,0],"id":14,"left_children":[1,3,5,7,9,11,13,15,17,19,-1,21,23,25,-1,27,29,31,-1,-1,-1,33,35,37,-1,39,-1,41,43,45,-1,47,-1,49,51,53,-1,-1,-1,-1,-1,-1,-1,-1,-1,-1,-1,-1,-1,-1,-1,-1,-1,-1,-1],"loss_changes":[8.1276447E2,3.7322403E2,5.493555E2,2.8629358E2,6.3827667E0,3.0176123E2,3.576758E1,2.6671735E2,1.1268477E2,1.3765144E-1,0E0,1.4719534E2,2.635257E1,6.1723022E0,0E0,1.6577356E2,3.3690056E1,1.6216694E1,0E0,0E0,0E0,1.20111465E2,1.13941345E1,7.810913E0,0E0,7.3516846E-2,0E0,7.321777E1,2.9134293E1,2.107336E0,0E0,6.2758923E-3,0E0,4.275232E1,2.5394485E1,1.5499496E-1,0E0,0E0,0E0,0E0,0E0,0E0,0E0,0E0,0E0,0E0,0E0,0E0,0E0,0E0,0E0,0E0,0E0,0E0,0E0],"parents":[2147483647,0,0,1,1,2,2,3,3,4,4,5,5,6,6,7,7,8,8,9,9,11,11,12,12,13,13,15,15,16,16,17,17,21,21,22,22,23,23,25,25,27,27,28,28,29,29,31,31,33,33,34,34,35,35],"right_children":[2,4,6,8,10,12,14,16,18,20,-1,22,24,26,-1,28,30,32,-1,-1,-1,34,36,38,-1,40,-1,42,44,46,-1,48,-1,50,52,54,-1,-1,-1,-1,-1,-1,-1,-1,-1,-1,-1,-1,-1,-1,-1,-1,-1,-1,-1],"split_conditions":[1E0,1E0,1E0,1E0,1E0,1E0,1E0,1E0,1E0,1E0,4.326932E-3,1E0,1E0,1E0,-1.5311348E-3,1E0,1E0,1E0,6.3700434E-3,2.6389821E-3,1.6652049E-3,1E0,1E0,1E0,-1.1184668E-4,1E0,-6.7669796E-3,1E0,1E0,1E0,1.2623689E-2,1E0,6.4270487E-3,1E0,1E0,1E0,6.826372E-3,1.0438674E-2,1.471082E-2,-1.1218728E-2,-1.3736659E-2,-5.0246227E-3,3.4372115E-3,-6.4236426E-4,8.704314E-3,5.1721325E-4,1.4964099E-3,-6.406902E-4,-7.6707016E-4,1.5030425E-3,-1.3674174E-3,4.5268415E-3,9.497054E-3,4.2165425E-3,4.9885646E-3],"split_indices":[4,5,3,7,1,0,5,6,2,0,0,5,8,6,0,9,0,0,0,0,0,7,1,6,0,9,0,0,0,1,0,1,0,8,2,2,0,0,0,0,0,0,0,0,0,0,0,0,0,0,0,0,0,0,0],"split_type":[0,0,0,0,0,0,0,0,0,0,0,0,0,0,0,0,0,0,0,0,0,0,0,0,0,0,0,0,0,0,0,0,0,0,0,0,0,0,0,0,0,0,0,0,0,0,0,0,0,0,0,0,0,0,0],"sum_hessian":[1.8629447E4,9.373089E3,9.256359E3,8.396175E3,9.769133E2,8.884455E3,3.719042E2,7.3422607E3,1.0539143E3,3.1110138E2,6.6581195E2,8.423984E3,4.6047083E2,3.2556924E2,4.6334953E1,6.376979E3,9.6528174E2,6.632919E2,3.906224E2,2.8889423E2,2.2207165E1,7.5277593E3,8.9622485E2,4.3812024E2,2.2350578E1,2.8881406E2,3.67552E1,5.44655E3,9.3042926E2,9.400565E2,2.5225203E1,6.311659E2,3.2125996E1,6.6690146E3,8.5874426E2,3.1102432E2,5.852005E2,3.8237534E2,5.574489E1,2.660571E2,2.2756947E1,5.342956E3,1.0359364E2,8.9679205E2,3.363722E1,3.5354437E2,5.8651215E2,8.5320206E1,5.458457E2,6.1027114E3,5.663036E2,7.388622E2,1.1988208E2,2.336811E2,7.7343216E1],"tree_param":{"num_deleted":"0","num_feature":"10","num_nodes":"55","size_leaf_vector":"1"}},{"base_weights":[5.4515516E-5,-2.0545661E-1,2.0815568E-1,-2.7285868E-1,3.7350377E-1,2.5754184E-1,-9.6999806E-1,-3.4212863E-1,2.095768E-1,2.54955E-1,4.284355E-3,2.1479484E-1,1.0380571E0,-1.085755E0,-1.5161752E-3,-4.1555256E-1,1.4280148E-1,-3.902009E-2,6.3085E-3,2.6128253E-3,1.6493046E-3,1.6958167E-1,5.9404033E-1,1.0915323E0,-1.10776E-4,-1.136158E0,-6.703437E-3,-4.81539E-1,-2.924421E-2,1.1178292E-1,1.2517125E-2,-7.435426E-2,6.3667106E-3,1.24655835E-1,5.180009E-1,4.380618E-1,6.7606866E-3,1.0343314E-2,1.4590281E-2,-1.1117888E-2,-1.362303E-2,-3.2791283E-3,-5.6764334E-3,-6.3594966E-4,8.624727E-3,5.12055E-4,1.4814971E-3,-6.343597E-4,-7.5941754E-4,1.4880416E-3,-1.3537871E-3,4.482353E-3,9.40943E-3,4.1751335E-3,4.940264E-3],"categories":[],"categories_nodes":[],"categories_segments":[],"categories_sizes":[],"default_left":[0,0,0,0,0,0,0,0,0,0,0,0,0,0,0,0,0,0,0,0,0,0,0,0,0,0,0,0,0,0,0,0,0,0,0,0,0,0,0,0,0,0,0,0,0,0,0,0,0,0,0,0,0,0,0],"id":15,"left_children":[1,3,5,7,9,11,13,15,17,19,-1,21,23,25,-1,27,29,31,-1,-1,-1,33,35,37,-1,39,-1,41,43,45,-1,47,-1,49,51,53,-1,-1,-1,-1,-1,-1,-1,-1,-1,-1,-1,-1,-1,-1,-1,-1,-1,-1,-1],"loss_changes":[7.966987E2,3.6585446E2,5.3880896E2,2.8064886E2,6.2582855E0,2.9620422E2,3.5132782E1,2.6147943E2,1.10488556E2,1.346817E-1,0E0,1.4435168E2,2.587857E1,6.069702E0,0E0,1.6254016E2,3.309565E1,1.5906986E1,0E0,0E0,0E0,1.1777826E2,1.1180237E1,7.7129517E0,0E0,8.0963135E-2,0E0,7.1859375E1,2.8584906E1,2.0655441E0,0E0,6.1397552E-3,0E0,4.1903084E1,2.4940567E1,1.5250778E-1,0E0,0E0,0E0,0E0,0E0,0E0,0E0,0E0,0E0,0E0,0E0,0E0,0E0,0E0,0E0,0E0,0E0,0E0,0E0],"parents":[2147483647,0,0,1,1,2,2,3,3,4,4,5,5,6,6,7,7,8,8,9,9,11,11,12,12,13,13,15,15,16,16,17,17,21,21,22,22,23,23,25,25,27,27,28,28,29,29,31,31,33,33,34,34,35,35],"right_children":[2,4,6,8,10,12,14,16,18,20,-1,22,24,26,-1,28,30,32,-1,-1,-1,34,36,38,-1,40,-1,42,44,46,-1,48,-1,50,52,54,-1,-1,-1,-1,-1,-1,-1,-1,-1,-1,-1,-1,-1,-1,-1,-1,-1,-1,-1],"split_conditions":[1E0,1E0,1E0,1E0,1E0,1E0,1E0,1E0,1E0,1E0,4.284355E-3,1E0,1E0,1E0,-1.5161752E-3,1E0,1E0,1E0,6.3085E-3,2.6128253E-3,1.6493046E-3,1E0,1E0,1E0,-1.10776E-4,1E0,-6.703437E-3,1E0,1E0,1E0,1.2517125E-2,1E0,6.3667106E-3,1E0,1E0,1E0,6.7606866E-3,1.0343314E-2,1.4590281E-2,-1.1117888E-2,-1.362303E-2,-3.2791283E-3,-5.6764334E-3,-6.3594966E-4,8.624727E-3,5.12055E-4,1.4814971E-3,-6.343597E-4,-7.5941754E-4,1.4880416E-3,-1.3537871E-3,4.482353E-3,9.40943E-3,4.1751335E-3,4.940264E-3],"split_indices":[4,5,3,7,1,0,5,6,2,0,0,5,8,6,0,9,0,0,0,0,0,7,1,6,0,9,0,1,0,1,0,1,0,8,2,2,0,0,0,0,0,0,0,0,0,0,0,0,0,0,0,0,0,0,0],"split_type":[0,0,0,0,0,0,0,0,0,0,0,0,0,0,0,0,0,0,0,0,0,0,0,0,0,0,0,0,0,0,0,0,0,0,0,0,0,0,0,0,0,0,0,0,0,0,0,0,0,0,0,0,0,0,0],"sum_hessian":[1.8626773E4,9.371713E3,9.25506E3,8.394913E3,9.768E2,8.883462E3,3.7159793E2,7.3411353E3,1.0537778E3,3.110852E2,6.657148E2,8.423406E3,4.6005515E2,3.2526382E2,4.6334103E1,6.3758955E3,9.6523975E2,6.632788E2,3.9049905E2,2.888785E2,2.2206686E1,7.5274414E3,8.9596533E2,4.3770456E2,2.2350576E1,2.885217E2,3.6742123E1,5.4454893E3,9.3040656E2,9.4004553E2,2.5194221E1,6.311631E2,3.211569E1,6.668899E3,8.585425E2,3.1097696E2,5.8498834E2,3.8205246E2,5.5652103E1,2.657959E2,2.272579E1,1.9575905E3,3.4878987E3,8.9678906E2,3.3617466E1,3.535436E2,5.865019E2,8.531993E1,5.4584314E2,6.1026035E3,5.6629535E2,7.3874426E2,1.1979822E2,2.3364873E2,7.732824E1],"tree_param":{"num_deleted":"0","num_feature":"10","num_nodes":"55","size_leaf_vector":"1"}},{"base_weights":[5.685822E-5,-2.0342918E-1,2.0610708E-1,-2.7016875E-1,3.6982304E-1,2.5500295E-1,-9.612235E-1,-3.3875847E-1,2.0752046E-1,2.5243315E-1,4.2422316E-3,2.1266587E-1,1.0287126E0,-1.0760602E0,-1.501362E-3,-4.114683E-1,1.4139508E-1,-3.862311E-2,6.2476606E-3,2.5869375E-3,1.6335568E-3,1.6789514E-1,5.8829784E-1,1.0817591E0,-1.09714456E-4,-1.1260854E0,-6.640612E-3,-4.768196E-1,-2.8943753E-2,1.10668495E-1,1.241228E-2,-7.361321E-2,6.307043E-3,1.2341142E-1,5.129647E-1,4.3378022E-1,6.6957604E-3,1.0249297E-2,1.4472044E-2,-1.1018537E-2,-1.3511399E-2,-4.927935E-3,3.4356588E-3,-6.295985E-4,8.546135E-3,5.0694856E-4,1.466734E-3,-6.2808907E-4,-7.518407E-4,1.4731892E-3,-1.3402925E-3,4.43834E-3,9.322965E-3,4.134164E-3,4.892485E-3],"categories":[],"categories_nodes":[],"categories_segments":[],"categories_sizes":[],"default_left":[0,0,0,0,0,0,0,0,0,0,0,0,0,0,0,0,0,0,0,0,0,0,0,0,0,0,0,0,0,0,0,0,0,0,0,0,0,0,0,0,0,0,0,0,0,0,0,0,0,0,0,0,0,0,0],"id":16,"left_children":[1,3,5,7,9,11,13,15,17,19,-1,21,23,25,-1,27,29,31,-1,-1,-1,33,35,37,-1,39,-1,41,43,45,-1,47,-1,49,51,53,-1,-1,-1,-1,-1,-1,-1,-1,-1,-1,-1,-1,-1,-1,-1,-1,-1,-1,-1],"loss_changes":[7.809575E2,3.5863333E2,5.284811E2,2.7511688E2,6.1364136E0,2.907718E2,3.4513153E1,2.563463E2,1.0833751E2,1.317749E-1,0E0,1.4156686E2,2.541565E1,5.9699707E0,0E0,1.5937158E2,3.2514343E1,1.5603403E1,0E0,0E0,0E0,1.15493E2,1.0971069E1,7.6186523E0,0E0,8.843994E-2,0E0,7.153027E1,2.8046675E1,2.024582E0,0E0,6.006956E-3,0E0,4.107065E1,2.449707E1,1.5007019E-1,0E0,0E0,0E0,0E0,0E0,0E0,0E0,0E0,0E0,0E0,0E0,0E0,0E0,0E0,0E0,0E0,0E0,0E0,0E0],"parents":[2147483647,0,0,1,1,2,2,3,3,4,4,5,5,6,6,7,7,8,8,9,9,11,11,12,12,13,13,15,15,16,16,17,17,21,21,22,22,23,23,25,25,27,27,28,28,29,29,31,31,33,33,34,34,35,35],"right_children":[2,4,6,8,10,12,14,16,18,20,-1,22,24,26,-1,28,30,32,-1,-1,-1,34,36,38,-1,40,-1,42,44,46,-1,48,-1,50,52,54,-1,-1,-1,-1,-1,-1,-1,-1,-1,-1,-1,-1,-1,-1,-1,-1,-1,-1,-1],"split_conditions":[1E0,1E0,1E0,1E0,1E0,1E0,1E0,1E0,1E0,1E0,4.2422316E-3,1E0,1E0,1E0,-1.501362E-3,1E0,1E0,1E0,6.2476606E-3,2.5869375E-3,1.6335568E-3,1E0,1E0,1E0,-1.09714456E-4,1E0,-6.640612E-3,1E0,1E0,1E0,1.241228E-2,1E0,6.307043E-3,1E0,1E0,1E0,6.6957604E-3,1.0249297E-2,1.4472044E-2,-1.1018537E-2,-1.3511399E-2,-4.927935E-3,3.4356588E-3,-6.295985E-4,8.546135E-3,5.0694856E-4,1.466734E-3,-6.2808907E-4,-7.518407E-4,1.4731892E-3,-1.3402925E-3,4.43834E-3,9.322965E-3,4.134164E-3,4.892485E-3],"split_indices":[4,5,3,7,1,0,5,6,2,0,0,5,8,6,0,9,0,0,0,0,0,7,1,6,0,9,0,0,0,1,0,1,0,8,2,2,0,0,0,0,0,0,0,0,0,0,0,0,0,0,0,0,0,0,0],"split_type":[0,0,0,0,0,0,0,0,0,0,0,0,0,0,0,0,0,0,0,0,0,0,0,0,0,0,0,0,0,0,0,0,0,0,0,0,0,0,0,0,0,0,0,0,0,0,0,0,0,0,0,0,0,0,0],"sum_hessian":[1.8624004E4,9.370313E3,9.253691E3,8.393633E3,9.7668066E2,8.882416E3,3.712754E2,7.3399985E3,1.0536342E3,3.1106818E2,6.656125E2,8.422799E3,4.596173E2,3.2494217E2,4.6333214E1,6.3748027E3,9.6519556E2,6.63265E2,3.9036914E2,2.88862E2,2.2206182E1,7.527107E3,8.95692E2,4.3726675E2,2.2350574E1,2.8821384E2,3.672835E1,5.44442E3,9.303828E2,9.40034E2,2.516158E1,6.3116016E2,3.210483E1,6.668777E3,8.5832983E2,3.109271E2,5.847649E2,3.8171237E2,5.5554367E1,2.65521E2,2.2692839E1,5.3408267E3,1.03593216E2,8.967862E2,3.3596653E1,3.5354285E2,5.8649115E2,8.531965E1,5.458405E2,6.10249E3,5.662866E2,7.3861993E2,1.1970989E2,2.3361464E2,7.7312454E1],"tree_param":{"num_deleted":"0","num_feature":"10","num_nodes":"55","size_leaf_vector":"1"}},{"base_weights":[5.965624E-5,-2.0142333E-1,2.0408021E-1,-2.675078E-1,3.6618045E-1,2.5249064E-1,-9.5256966E-1,-3.3542502E-1,2.054856E-1,2.4993657E-1,4.200551E-3,2.1055883E-1,1.0195006E0,-1.066505E0,-1.4866933E-3,-4.0742928E-1,1.4000297E-1,-3.8230307E-2,6.187508E-3,2.5613096E-3,1.6179625E-3,1.6622587E-1,5.826195E-1,1.0721269E0,-1.0866547E-4,-1.116162E0,-6.5785E-3,-4.7215346E-1,-2.8646694E-2,1.0956533E-1,1.2309094E-2,-7.287969E-2,6.2480387E-3,1.2217964E-1,5.079838E-1,4.295437E-1,6.6315816E-3,1.0156584E-2,1.4356035E-2,-1.0920635E-2,-1.3401705E-2,-3.2025948E-3,-5.5729877E-3,-6.233139E-4,8.468515E-3,5.0189515E-4,1.4521193E-3,-6.218837E-4,-7.4434053E-4,1.458488E-3,-1.3269364E-3,4.394796E-3,9.23763E-3,4.093626E-3,4.8452117E-3],"categories":[],"categories_nodes":[],"categories_segments":[],"categories_sizes":[],"default_left":[0,0,0,0,0,0,0,0,0,0,0,0,0,0,0,0,0,0,0,0,0,0,0,0,0,0,0,0,0,0,0,0,0,0,0,0,0,0,0,0,0,0,0,0,0,0,0,0,0,0,0,0,0,0,0],"id":17,"left_children":[1,3,5,7,9,11,13,15,17,19,-1,21,23,25,-1,27,29,31,-1,-1,-1,33,35,37,-1,39,-1,41,43,45,-1,47,-1,49,51,53,-1,-1,-1,-1,-1,-1,-1,-1,-1,-1,-1,-1,-1,-1,-1,-1,-1,-1,-1],"loss_changes":[7.6553174E2,3.5155695E2,5.1836664E2,2.6969684E2,6.0170593E0,2.8545947E2,3.3908142E1,2.5131787E2,1.062305E2,1.2893295E-1,0E0,1.3883948E2,2.496341E1,5.8731384E0,0E0,1.562688E2,3.1945747E1,1.5305844E1,0E0,0E0,0E0,1.13254364E2,1.076651E1,7.5279236E0,0E0,9.5947266E-2,0E0,7.02323E1,2.7519354E1,1.9844284E0,0E0,5.8763027E-3,0E0,4.025493E1,2.4063644E1,1.4767456E-1,0E0,0E0,0E0,0E0,0E0,0E0,0E0,0E0,0E0,0E0,0E0,0E0,0E0,0E0,0E0,0E0,0E0,0E0,0E0],"parents":[2147483647,0,0,1,1,2,2,3,3,4,4,5,5,6,6,7,7,8,8,9,9,11,11,12,12,13,13,15,15,16,16,17,17,21,21,22,22,23,23,25,25,27,27,28,28,29,29,31,31,33,33,34,34,35,35],"right_children":[2,4,6,8,10,12,14,16,18,20,-1,22,24,26,-1,28,30,32,-1,-1,-1,34,36,38,-1,40,-1,42,44,46,-1,48,-1,50,52,54,-1,-1,-1,-1,-1,-1,-1,-1,-1,-1,-1,-1,-1,-1,-1,-1,-1,-1,-1],"split_conditions":[1E0,1E0,1E0,1E0,1E0,1E0,1E0,1E0,1E0,1E0,4.200551E-3,1E0,1E0,1E0,-1.4866933E-3,1E0,1E0,1E0,6.187508E-3,2.5613096E-3,1.6179625E-3,1E0,1E0,1E0,-1.0866547E-4,1E0,-6.5785E-3,1E0,1E0,1E0,1.2309094E-2,1E0,6.2480387E-3,1E0,1E0,1E0,6.6315816E-3,1.0156584E-2,1.4356035E-2,-1.0920635E-2,-1.3401705E-2,-3.2025948E-3,-5.5729877E-3,-6.233139E-4,8.468515E-3,5.0189515E-4,1.4521193E-3,-6.218837E-4,-7.4434053E-4,1.458488E-3,-1.3269364E-3,4.394796E-3,9.23763E-3,4.093626E-3,4.8452117E-3],"split_indices":[4,5,3,7,1,0,5,6,2,0,0,5,8,6,0,9,0,0,0,0,0,7,1,6,0,9,0,1,0,1,0,1,0,8,2,2,0,0,0,0,0,0,0,0,0,0,0,0,0,0,0,0,0,0,0],"split_type":[0,0,0,0,0,0,0,0,0,0,0,0,0,0,0,0,0,0,0,0,0,0,0,0,0,0,0,0,0,0,0,0,0,0,0,0,0,0,0,0,0,0,0,0,0,0,0,0,0,0,0,0,0,0,0],"sum_hessian":[1.8621053E4,9.368797E3,9.252257E3,8.392241E3,9.765554E2,8.881319E3,3.709371E2,7.338758E3,1.0534834E3,3.1105032E2,6.655051E2,8.422161E3,4.591582E2,3.2460483E2,4.6332283E1,6.373609E3,9.651492E2,6.6325055E2,3.9023285E2,2.8884467E2,2.2205652E1,7.526756E3,8.9540533E2,4.3680765E2,2.2350574E1,2.878909E2,3.6713905E1,5.443251E3,9.303577E2,9.4002185E2,2.512733E1,6.311571E2,3.2093437E1,6.668649E3,8.581069E2,3.108748E2,5.845306E2,3.8135577E2,5.5451862E1,2.6523276E2,2.2658157E1,1.9569441E3,3.486307E3,8.967829E2,3.3574818E1,3.5354202E2,5.864798E2,8.531935E1,5.4583777E2,6.1023716E3,5.6627747E2,7.384896E2,1.1961726E2,2.3357887E2,7.72959E1],"tree_param":{"num_deleted":"0","num_feature":"10","num_nodes":"55","size_leaf_vector":"1"}},{"base_weights":[6.199673E-5,-1.9943857E-1,2.0207477E-1,-2.6487452E-1,3.6257604E-1,2.5000456E-1,-9.4403344E-1,-3.3212593E-1,2.0347206E-1,2.4746564E-1,4.1593118E-3,2.0847346E-1,1.0104178E0,-1.0570852E0,-1.472171E-3,-4.0343168E-1,1.38625E-1,-3.7841517E-2,6.1280327E-3,2.535946E-3,1.6025174E-3,1.645736E-1,5.7700455E-1,1.062632E0,-1.07623906E-4,-1.1063832E0,-6.5170834E-3,-4.6753508E-1,-2.8352477E-2,1.0847333E-1,1.2207528E-2,-7.215347E-2,6.189685E-3,1.2096036E-1,5.03057E-1,4.2535195E-1,6.5681394E-3,1.006514E-2,1.4242181E-2,-1.082414E-2,-1.3293886E-2,-4.8333127E-3,3.4333703E-3,-6.1708974E-4,8.391845E-3,4.968924E-4,1.4376531E-3,-6.1574153E-4,-7.369149E-4,1.4439356E-3,-1.3137114E-3,4.351711E-3,9.153406E-3,4.0535135E-3,4.7984472E-3],"categories":[],"categories_nodes":[],"categories_segments":[],"categories_sizes":[],"default_left":[0,0,0,0,0,0,0,0,0,0,0,0,0,0,0,0,0,0,0,0,0,0,0,0,0,0,0,0,0,0,0,0,0,0,0,0,0,0,0,0,0,0,0,0,0,0,0,0,0,0,0,0,0,0,0],"id":18,"left_children":[1,3,5,7,9,11,13,15,17,19,-1,21,23,25,-1,27,29,31,-1,-1,-1,33,35,37,-1,39,-1,41,43,45,-1,47,-1,49,51,53,-1,-1,-1,-1,-1,-1,-1,-1,-1,-1,-1,-1,-1,-1,-1,-1,-1,-1,-1],"loss_changes":[7.504176E2,3.4462265E2,5.0846042E2,2.6438495E2,5.9001465E0,2.8026392E2,3.33172E1,2.4638947E2,1.0416652E2,1.2615204E-1,0E0,1.3616803E2,2.4521576E1,5.7788696E0,0E0,1.532279E2,3.1389463E1,1.5014159E1,0E0,0E0,0E0,1.1106116E2,1.0566467E1,7.4405212E0,0E0,1.0342407E-1,0E0,6.988489E1,2.7002655E1,1.9450798E0,0E0,5.7485104E-3,0E0,3.9455383E1,2.3640045E1,1.4533615E-1,0E0,0E0,0E0,0E0,0E0,0E0,0E0,0E0,0E0,0E0,0E0,0E0,0E0,0E0,0E0,0E0,0E0,0E0,0E0],"parents":[2147483647,0,0,1,1,2,2,3,3,4,4,5,5,6,6,7,7,8,8,9,9,11,11,12,12,13,13,15,15,16,16,17,17,21,21,22,22,23,23,25,25,27,27,28,28,29,29,31,31,33,33,34,34,35,35],"right_children":[2,4,6,8,10,12,14,16,18,20,-1,22,24,26,-1,28,30,32,-1,-1,-1,34,36,38,-1,40,-1,42,44,46,-1,48,-1,50,52,54,-1,-1,-1,-1,-1,-1,-1,-1,-1,-1,-1,-1,-1,-1,-1,-1,-1,-1,-1],"split_conditions":[1E0,1E0,1E0,1E0,1E0,1E0,1E0,1E0,1E0,1E0,4.1593118E-3,1E0,1E0,1E0,-1.472171E-3,1E0,1E0,1E0,6.1280327E-3,2.535946E-3,1.6025174E-3,1E0,1E0,1E0,-1.07623906E-4,1E0,-6.5170834E-3,1E0,1E0,1E0,1.2207528E-2,1E0,6.189685E-3,1E0,1E0,1E0,6.5681394E-3,1.006514E-2,1.4242181E-2,-1.082414E-2,-1.3293886E-2,-4.8333127E-3,3.4333703E-3,-6.1708974E-4,8.391845E-3,4.968924E-4,1.4376531E-3,-6.1574153E-4,-7.369149E-4,1.4439356E-3,-1.3137114E-3,4.351711E-3,9.153406E-3,4.0535135E-3,4.7984472E-3],"split_indices":[4,5,3,7,1,0,5,6,2,0,0,5,8,6,0,9,0,0,0,0,0,7,1,6,0,9,0,0,0,1,0,1,0,8,2,2,0,0,0,0,0,0,0,0,0,0,0,0,0,0,0,0,0,0,0],"split_type":[0,0,0,0,0,0,0,0,0,0,0,0,0,0,0,0,0,0,0,0,0,0,0,0,0,0,0,0,0,0,0,0,0,0,0,0,0,0,0,0,0,0,0,0,0,0,0,0,0,0,0,0,0,0,0],"sum_hessian":[1.8618016E4,9.367259E3,9.250757E3,8.390834E3,9.764247E2,8.880173E3,3.705836E2,7.3375083E3,1.0533259E3,3.1103165E2,6.65393E2,8.421495E3,4.586784E2,3.2425226E2,4.6331306E1,6.3724077E3,9.651007E2,6.632354E2,3.9009048E2,2.8882657E2,2.2205097E1,7.526389E3,8.9510583E2,4.3632782E2,2.2350569E1,2.8755347E2,3.6698803E1,5.442076E3,9.3033154E2,9.4000916E2,2.5091526E1,6.311539E2,3.2081528E1,6.668515E3,8.578739E2,3.108201E2,5.842857E2,3.809831E2,5.534473E1,2.6493167E2,2.2621798E1,5.3384834E3,1.0359258E2,8.9677954E2,3.3551994E1,3.5354117E2,5.86468E2,8.531903E1,5.4583484E2,6.102247E3,5.6626794E2,7.3835345E2,1.1952046E2,2.3354152E2,7.72786E1],"tree_param":{"num_deleted":"0","num_feature":"10","num_nodes":"55","size_leaf_vector":"1"}},{"base_weights":[6.4736574E-5,-1.9747484E-1,2.0009038E-1,-2.6226947E-1,3.5900915E-1,2.4754432E-1,-9.356119E-1,-3.2886258E-1,2.014795E-1,2.4501947E-1,4.118508E-3,2.0640941E-1,1.0014609E0,-1.0477973E0,-1.4577926E-3,-3.9947805E-1,1.372607E-1,-3.7456736E-2,6.0692215E-3,2.510837E-3,1.5872247E-3,1.6293809E-1,5.7145166E-1,1.053271E0,-1.06593296E-4,-1.0967454E0,-6.4563476E-3,-4.6296847E-1,-2.806129E-2,1.0739207E-1,1.2107531E-2,-7.143455E-2,6.131971E-3,1.1975333E-1,4.9818376E-1,4.2120406E-1,6.505418E-3,9.974939E-3,1.4130414E-2,-1.0729015E-2,-1.3187889E-2,-3.1277721E-3,-5.4717287E-3,-6.109277E-4,8.316105E-3,4.9193815E-4,1.4233298E-3,-6.0965744E-4,-7.295644E-4,1.4295296E-3,-1.300621E-3,4.3090833E-3,9.070256E-3,4.013821E-3,4.7521717E-3],"categories":[],"categories_nodes":[],"categories_segments":[],"categories_sizes":[],"default_left":[0,0,0,0,0,0,0,0,0,0,0,0,0,0,0,0,0,0,0,0,0,0,0,0,0,0,0,0,0,0,0,0,0,0,0,0,0,0,0,0,0,0,0,0,0,0,0,0,0,0,0,0,0,0,0],"id":19,"left_children":[1,3,5,7,9,11,13,15,17,19,-1,21,23,25,-1,27,29,31,-1,-1,-1,33,35,37,-1,39,-1,41,43,45,-1,47,-1,49,51,53,-1,-1,-1,-1,-1,-1,-1,-1,-1,-1,-1,-1,-1,-1,-1,-1,-1,-1,-1],"loss_changes":[7.356054E2,3.378277E2,4.9875748E2,2.5918018E2,5.7856903E0,2.7518176E2,3.2739838E1,2.4156128E2,1.02144615E2,1.2343216E-1,0E0,1.3355136E2,2.4089722E1,5.6872864E0,0E0,1.502503E2,3.0845167E1,1.4728233E1,0E0,0E0,0E0,1.089126E2,1.0370819E1,7.3563232E0,0E0,1.109314E-1,0E0,6.865015E1,2.6496342E1,1.9065123E0,0E0,5.6238174E-3,0E0,3.8671783E1,2.3225815E1,1.4304352E-1,0E0,0E0,0E0,0E0,0E0,0E0,0E0,0E0,0E0,0E0,0E0,0E0,0E0,0E0,0E0,0E0,0E0,0E0,0E0],"parents":[2147483647,0,0,1,1,2,2,3,3,4,4,5,5,6,6,7,7,8,8,9,9,11,11,12,12,13,13,15,15,16,16,17,17,21,21,22,22,23,23,25,25,27,27,28,28,29,29,31,31,33,33,34,34,35,35],"right_children":[2,4,6,8,10,12,14,16,18,20,-1,22,24,26,-1,28,30,32,-1,-1,-1,34,36,38,-1,40,-1,42,44,46,-1,48,-1,50,52,54,-1,-1,-1,-1,-1,-1,-1,-1,-1,-1,-1,-1,-1,-1,-1,-1,-1,-1,-1],"split_conditions":[1E0,1E0,1E0,1E0,1E0,1E0,1E0,1E0,1E0,1E0,4.118508E-3,1E0,1E0,1E0,-1.4577926E-3,1E0,1E0,1E0,6.0692215E-3,2.510837E-3,1.5872247E-3,1E0,1E0,1E0,-1.06593296E-4,1E0,-6.4563476E-3,1E0,1E0,1E0,1.2107531E-2,1E0,6.131971E-3,1E0,1E0,1E0,6.505418E-3,9.974939E-3,1.4130414E-2,-1.0729015E-2,-1.3187889E-2,-3.1277721E-3,-5.4717287E-3,-6.109277E-4,8.316105E-3,4.9193815E-4,1.4233298E-3,-6.0965744E-4,-7.295644E-4,1.4295296E-3,-1.300621E-3,4.3090833E-3,9.070256E-3,4.013821E-3,4.7521717E-3],"split_indices":[4,5,3,7,1,0,5,6,2,0,0,5,8,6,0,9,0,0,0,0,0,7,1,6,0,9,0,1,0,1,0,1,0,8,2,2,0,0,0,0,0,0,0,0,0,0,0,0,0,0,0,0,0,0,0],"split_type":[0,0,0,0,0,0,0,0,0,0,0,0,0,0,0,0,0,0,0,0,0,0,0,0,0,0,0,0,0,0,0,0,0,0,0,0,0,0,0,0,0,0,0,0,0,0,0,0,0,0,0,0,0,0,0],"sum_hessian":[1.8614805E4,9.36561E3,9.249195E3,8.389322E3,9.7628845E2,8.8789795E3,3.702154E2,7.33616E3,1.0531619E3,3.1101224E2,6.6527625E2,8.420801E3,4.581787E2,3.238851E2,4.6330284E1,6.37111E3,9.650502E2,6.632196E2,3.899422E2,2.888077E2,2.220452E1,7.5260073E3,8.947938E2,4.3582812E2,2.2350569E1,2.8720203E2,3.6683067E1,5.4408057E3,9.3030426E2,9.39996E2,2.505422E1,6.311505E2,3.206912E1,6.668376E3,8.576312E2,3.1076315E2,5.840307E2,3.80595E2,5.5233135E1,2.6461823E2,2.258381E1,1.956251E3,3.4845547E3,8.9677606E2,3.3528214E1,3.535403E2,5.864557E2,8.531871E1,5.458318E2,6.102118E3,5.66258E2,7.382116E2,1.1941963E2,2.3350258E2,7.726058E1],"tree_param":{"num_deleted":"0","num_feature":"10","num_nodes":"55","size_leaf_vector":"1"}},{"base_weights":[6.6941815E-5,-1.9553162E-1,1.9812664E-1,-2.5969133E-1,3.5547918E-1,2.4510944E-1,-9.273021E-1,-3.2563257E-1,1.9950768E-1,2.4259809E-1,4.078131E-3,2.0436633E-1,9.926265E-1,-1.0386381E0,-1.4435548E-3,-3.9556465E-1,1.3591033E-1,-3.7075862E-2,6.0110646E-3,2.485983E-3,1.5720753E-3,1.6131899E-1,5.6596E-1,1.0440402E0,-1.0557444E-4,-1.0872446E0,-6.3962857E-3,-4.584482E-1,-2.777287E-2,1.06321834E-1,1.2009056E-2,-7.072277E-2,6.0748872E-3,1.1855826E-1,4.9336314E-1,4.170996E-1,6.443408E-3,9.885944E-3,1.4020663E-2,-1.0635222E-2,-1.30836535E-2,-4.7406955E-3,3.4303702E-3,-6.04825E-4,8.241283E-3,4.8703467E-4,1.4091524E-3,-6.036354E-4,-7.2228676E-4,1.4152663E-3,-1.2876617E-3,4.2669047E-3,8.988161E-3,3.974541E-3,4.7063893E-3],"categories":[],"categories_nodes":[],"categories_segments":[],"categories_sizes":[],"default_left":[0,0,0,0,0,0,0,0,0,0,0,0,0,0,0,0,0,0,0,0,0,0,0,0,0,0,0,0,0,0,0,0,0,0,0,0,0,0,0,0,0,0,0,0,0,0,0,0,0,0,0,0,0,0,0],"id":20,"left_children":[1,3,5,7,9,11,13,15,17,19,-1,21,23,25,-1,27,29,31,-1,-1,-1,33,35,37,-1,39,-1,41,43,45,-1,47,-1,49,51,53,-1,-1,-1,-1,-1,-1,-1,-1,-1,-1,-1,-1,-1,-1,-1,-1,-1,-1,-1],"loss_changes":[7.210913E2,3.3116846E2,4.8925293E2,2.5407904E2,5.6735764E0,2.7020972E2,3.217563E1,2.3682898E2,1.0016377E2,1.2077141E-1,0E0,1.3098825E2,2.3667511E1,5.5981445E0,0E0,1.4733185E2,3.0312468E1,1.4447946E1,0E0,0E0,0E0,1.0680769E2,1.0179382E1,7.2750854E0,0E0,1.18377686E-1,0E0,6.827966E1,2.6000198E1,1.8687191E0,0E0,5.5015087E-3,0E0,3.7903748E1,2.2820724E1,1.4078903E-1,0E0,0E0,0E0,0E0,0E0,0E0,0E0,0E0,0E0,0E0,0E0,0E0,0E0,0E0,0E0,0E0,0E0,0E0,0E0],"parents":[2147483647,0,0,1,1,2,2,3,3,4,4,5,5,6,6,7,7,8,8,9,9,11,11,12,12,13,13,15,15,16,16,17,17,21,21,22,22,23,23,25,25,27,27,28,28,29,29,31,31,33,33,34,34,35,35],"right_children":[2,4,6,8,10,12,14,16,18,20,-1,22,24,26,-1,28,30,32,-1,-1,-1,34,36,38,-1,40,-1,42,44,46,-1,48,-1,50,52,54,-1,-1,-1,-1,-1,-1,-1,-1,-1,-1,-1,-1,-1,-1,-1,-1,-1,-1,-1],"split_conditions":[1E0,1E0,1E0,1E0,1E0,1E0,1E0,1E0,1E0,1E0,4.078131E-3,1E0,1E0,1E0,-1.4435548E-3,1E0,1E0,1E0,6.0110646E-3,2.485983E-3,1.5720753E-3,1E0,1E0,1E0,-1.0557444E-4,1E0,-6.3962857E-3,1E0,1E0,1E0,1.2009056E-2,1E0,6.0748872E-3,1E0,1E0,1E0,6.443408E-3,9.885944E-3,1.4020663E-2,-1.0635222E-2,-1.30836535E-2,-4.7406955E-3,3.4303702E-3,-6.04825E-4,8.241283E-3,4.8703467E-4,1.4091524E-3,-6.036354E-4,-7.2228676E-4,1.4152663E-3,-1.2876617E-3,4.2669047E-3,8.988161E-3,3.974541E-3,4.7063893E-3],"split_indices":[4,5,3,7,1,0,5,6,2,0,0,5,8,6,0,9,0,0,0,0,0,7,1,6,0,9,0,0,0,1,0,1,0,8,2,2,0,0,0,0,0,0,0,0,0,0,0,0,0,0,0,0,0,0,0],"split_type":[0,0,0,0,0,0,0,0,0,0,0,0,0,0,0,0,0,0,0,0,0,0,0,0,0,0,0,0,0,0,0,0,0,0,0,0,0,0,0,0,0,0,0,0,0,0,0,0,0,0,0,0,0,0,0],"sum_hessian":[1.8611518E4,9.363945E3,9.247573E3,8.387798E3,9.7614703E2,8.87774E3,3.69833E2,7.3348066E3,1.0529916E3,3.1099203E2,6.6515497E2,8.42008E3,4.5765976E2,3.2350378E2,4.6329227E1,6.369809E3,9.649977E2,6.632033E2,3.8978824E2,2.8878812E2,2.220392E1,7.5256104E3,8.9446985E2,4.353092E2,2.2350563E1,2.8683707E2,3.666672E1,5.4395327E3,9.302761E2,9.3998224E2,2.5015463E1,6.311471E2,3.205623E1,6.6682314E3,8.573792E2,3.10704E2,5.8376587E2,3.8019196E2,5.5117237E1,2.6429282E2,2.2544258E1,5.335941E3,1.0359176E2,8.967726E2,3.3503513E1,3.5353937E2,5.864429E2,8.531835E1,5.4582874E2,6.1019834E3,5.662477E2,7.3806433E2,1.19314926E2,2.3346216E2,7.724186E1],"tree_param":{"num_deleted":"0","num_feature":"10","num_nodes":"55","size_leaf_vector":"1"}},{"base_weights":[6.958175E-5,-1.9360895E-1,1.9618364E-1,-2.571408E-1,3.5198575E-1,2.4269997E-1,-9.191018E-1,-3.2243752E-1,1.9755639E-1,2.4020141E-1,4.038175E-3,2.0234431E-1,9.8391134E-1,-1.0296046E0,-1.4294595E-3,-3.9169416E-1,1.3457347E-1,-3.6698867E-2,5.953551E-3,2.4613834E-3,1.557076E-3,1.5971652E-1,5.605285E-1,1.0349361E0,-1.0456221E-4,-1.0778776E0,-6.3368846E-3,-4.5397836E-1,-2.7487818E-2,1.0526224E-1,1.1912062E-2,-7.0018075E-2,6.0184193E-3,1.1737545E-1,4.885946E-1,4.1303796E-1,6.3820938E-3,9.798126E-3,1.3912873E-2,-1.0542733E-2,-1.2981134E-2,-3.054615E-3,-5.372591E-3,-5.9878716E-4,8.167344E-3,4.8217963E-4,1.3951167E-3,-5.976704E-4,-7.150818E-4,1.4011494E-3,-1.2748338E-3,4.2251716E-3,8.907096E-3,3.9356705E-3,4.661089E-3],"categories":[],"categories_nodes":[],"categories_segments":[],"categories_sizes":[],"default_left":[0,0,0,0,0,0,0,0,0,0,0,0,0,0,0,0,0,0,0,0,0,0,0,0,0,0,0,0,0,0,0,0,0,0,0,0,0,0,0,0,0,0,0,0,0,0,0,0,0,0,0,0,0,0,0],"id":21,"left_children":[1,3,5,7,9,11,13,15,17,19,-1,21,23,25,-1,27,29,31,-1,-1,-1,33,35,37,-1,39,-1,41,43,45,-1,47,-1,49,51,53,-1,-1,-1,-1,-1,-1,-1,-1,-1,-1,-1,-1,-1,-1,-1,-1,-1,-1,-1],"loss_changes":[7.0686774E2,3.2464276E2,4.7994263E2,2.4908093E2,5.5637207E0,2.6534393E2,3.1624207E1,2.3219287E2,9.822311E1,1.1817169E-1,0E0,1.284772E2,2.325473E1,5.511322E0,0E0,1.4447327E2,2.979104E1,1.4173153E1,0E0,0E0,0E0,1.0474538E2,9.992126E0,7.196808E0,0E0,1.2579346E-1,0E0,6.711072E1,2.5513954E1,1.8316755E0,0E0,5.382538E-3,0E0,3.7151093E1,2.2424484E1,1.3858414E-1,0E0,0E0,0E0,0E0,0E0,0E0,0E0,0E0,0E0,0E0,0E0,0E0,0E0,0E0,0E0,0E0,0E0,0E0,0E0],"parents":[2147483647,0,0,1,1,2,2,3,3,4,4,5,5,6,6,7,7,8,8,9,9,11,11,12,12,13,13,15,15,16,16,17,17,21,21,22,22,23,23,25,25,27,27,28,28,29,29,31,31,33,33,34,34,35,35],"right_children":[2,4,6,8,10,12,14,16,18,20,-1,22,24,26,-1,28,30,32,-1,-1,-1,34,36,38,-1,40,-1,42,44,46,-1,48,-1,50,52,54,-1,-1,-1,-1,-1,-1,-1,-1,-1,-1,-1,-1,-1,-1,-1,-1,-1,-1,-1],"split_conditions":[1E0,1E0,1E0,1E0,1E0,1E0,1E0,1E0,1E0,1E0,4.038175E-3,1E0,1E0,1E0,-1.4294595E-3,1E0,1E0,1E0,5.953551E-3,2.4613834E-3,1.557076E-3,1E0,1E0,1E0,-1.0456221E-4,1E0,-6.3368846E-3,1E0,1E0,1E0,1.1912062E-2,1E0,6.0184193E-3,1E0,1E0,1E0,6.3820938E-3,9.798126E-3,1.3912873E-2,-1.0542733E-2,-1.2981134E-2,-3.054615E-3,-5.372591E-3,-5.9878716E-4,8.167344E-3,4.8217963E-4,1.3951167E-3,-5.976704E-4,-7.150818E-4,1.4011494E-3,-1.2748338E-3,4.2251716E-3,8.907096E-3,3.9356705E-3,4.661089E-3],"split_indices":[4,5,3,7,1,0,5,6,2,0,0,5,8,6,0,9,0,0,0,0,0,7,1,6,0,9,0,1,0,1,0,1,0,8,2,2,0,0,0,0,0,0,0,0,0,0,0,0,0,0,0,0,0,0,0],"split_type":[0,0,0,0,0,0,0,0,0,0,0,0,0,0,0,0,0,0,0,0,0,0,0,0,0,0,0,0,0,0,0,0,0,0,0,0,0,0,0,0,0,0,0,0,0,0,0,0,0,0,0,0,0,0,0],"sum_hessian":[1.8608068E4,9.362174E3,9.245894E3,8.386174E3,9.760005E2,8.876456E3,3.6943692E2,7.3333584E3,1.0528151E3,3.1097113E2,6.6502936E2,8.419334E3,4.5712225E2,3.231088E2,4.6328125E1,6.368415E3,9.6494336E2,6.6318634E2,3.8962872E2,2.8876782E2,2.2203299E1,7.5251997E3,8.9413434E2,4.347717E2,2.2350563E1,2.86459E2,3.6649788E1,5.4381685E3,9.302467E2,9.399681E2,2.4975302E1,6.311435E2,3.204287E1,6.6680815E3,8.571182E2,3.1064276E2,5.834916E2,3.7977454E2,5.4997166E1,2.6395584E2,2.2503183E1,1.9555144E3,3.482654E3,8.9676874E2,3.347792E1,3.5353842E2,5.864296E2,8.5318E1,5.4582544E2,6.1018447E3,5.6623706E2,7.379118E2,1.1920645E2,2.3342029E2,7.722247E1],"tree_param":{"num_deleted":"0","num_feature":"10","num_nodes":"55","size_leaf_vector":"1"}},{"base_weights":[7.1687085E-5,-1.9170637E-1,1.942608E-1,-2.546166E-1,3.4852836E-1,2.4031527E-1,-9.1100746E-1,-3.1927514E-1,1.9562547E-1,2.3782882E-1,3.9986363E-3,2.003428E-1,9.7531277E-1,-1.0206925E0,-1.4155019E-3,-3.87863E-1,1.3324994E-1,-3.6325414E-2,5.8966675E-3,2.4370316E-3,1.5422177E-3,1.5813017E-1,5.5515605E-1,1.0259557E0,-1.03561746E-4,-1.06864E0,-6.278134E-3,-4.495537E-1,-2.7205862E-2,1.04213156E-1,1.1816506E-2,-6.932008E-2,5.9625595E-3,1.1620445E-1,4.8387697E-1,4.0901875E-1,6.321461E-3,9.711459E-3,1.38069745E-2,-1.0451501E-2,-1.2880271E-2,-4.6500294E-3,3.4266827E-3,-5.9281144E-4,8.094283E-3,4.773708E-4,1.3812212E-3,-5.917635E-4,-7.079454E-4,1.3871731E-3,-1.2621292E-3,4.183873E-3,8.827039E-3,3.8972057E-3,4.6162605E-3],"categories":[],"categories_nodes":[],"categories_segments":[],"categories_sizes":[],"default_left":[0,0,0,0,0,0,0,0,0,0,0,0,0,0,0,0,0,0,0,0,0,0,0,0,0,0,0,0,0,0,0,0,0,0,0,0,0,0,0,0,0,0,0,0,0,0,0,0,0,0,0,0,0,0,0],"id":22,"left_children":[1,3,5,7,9,11,13,15,17,19,-1,21,23,25,-1,27,29,31,-1,-1,-1,33,35,37,-1,39,-1,41,43,45,-1,47,-1,49,51,53,-1,-1,-1,-1,-1,-1,-1,-1,-1,-1,-1,-1,-1,-1,-1,-1,-1,-1,-1],"loss_changes":[6.929303E2,3.1824753E2,4.7082098E2,2.4418231E2,5.456131E0,2.6058246E2,3.1085083E1,2.2764844E2,9.632159E1,1.1562729E-1,0E0,1.2601709E2,2.2851013E1,5.42688E0,0E0,1.4167108E2,2.928056E1,1.3903743E1,0E0,0E0,0E0,1.0272455E2,9.808777E0,7.121155E0,0E0,1.331482E-1,0E0,6.671387E1,2.5037434E1,1.7953739E0,0E0,5.264759E-3,0E0,3.641323E1,2.2036865E1,1.3641739E-1,0E0,0E0,0E0,0E0,0E0,0E0,0E0,0E0,0E0,0E0,0E0,0E0,0E0,0E0,0E0,0E0,0E0,0E0,0E0],"parents":[2147483647,0,0,1,1,2,2,3,3,4,4,5,5,6,6,7,7,8,8,9,9,11,11,12,12,13,13,15,15,16,16,17,17,21,21,22,22,23,23,25,25,27,27,28,28,29,29,31,31,33,33,34,34,35,35],"right_children":[2,4,6,8,10,12,14,16,18,20,-1,22,24,26,-1,28,30,32,-1,-1,-1,34,36,38,-1,40,-1,42,44,46,-1,48,-1,50,52,54,-1,-1,-1,-1,-1,-1,-1,-1,-1,-1,-1,-1,-1,-1,-1,-1,-1,-1,-1],"split_conditions":[1E0,1E0,1E0,1E0,1E0,1E0,1E0,1E0,1E0,1E0,3.9986363E-3,1E0,1E0,1E0,-1.4155019E-3,1E0,1E0,1E0,5.8966675E-3,2.4370316E-3,1.5422177E-3,1E0,1E0,1E0,-1.03561746E-4,1E0,-6.278134E-3,1E0,1E0,1E0,1.1816506E-2,1E0,5.9625595E-3,1E0,1E0,1E0,6.321461E-3,9.711459E-3,1.38069745E-2,-1.0451501E-2,-1.2880271E-2,-4.6500294E-3,3.4266827E-3,-5.9281144E-4,8.094283E-3,4.773708E-4,1.3812212E-3,-5.917635E-4,-7.079454E-4,1.3871731E-3,-1.2621292E-3,4.183873E-3,8.827039E-3,3.8972057E-3,4.6162605E-3],"split_indices":[4,5,3,7,1,0,5,6,2,0,0,5,8,6,0,9,0,0,0,0,0,7,1,6,0,9,0,0,0,1,0,1,0,8,2,2,0,0,0,0,0,0,0,0,0,0,0,0,0,0,0,0,0,0,0],"split_type":[0,0,0,0,0,0,0,0,0,0,0,0,0,0,0,0,0,0,0,0,0,0,0,0,0,0,0,0,0,0,0,0,0,0,0,0,0,0,0,0,0,0,0,0,0,0,0,0,0,0,0,0,0,0,0],"sum_hessian":[1.8604547E4,9.360389E3,9.244157E3,8.38454E3,9.7584906E2,8.87513E3,3.6902765E2,7.331907E3,1.0526328E3,3.1094952E2,6.6489954E2,8.418563E3,4.5656683E2,3.2270065E2,4.6326996E1,6.36702E3,9.6488715E2,6.631688E2,3.8946393E2,2.8874686E2,2.2202658E1,7.5247754E3,8.937876E2,4.3421628E2,2.2350557E1,2.8606836E2,3.663228E1,5.4368037E3,9.302164E2,9.3995337E2,2.4933786E1,6.311398E2,3.202906E1,6.6679272E3,8.5684845E2,3.1057947E2,5.832081E2,3.793432E2,5.4873085E1,2.6360773E2,2.2460648E1,5.333213E3,1.0359073E2,8.967649E2,3.345146E1,3.535374E2,5.8641595E2,8.531765E1,5.4582214E2,6.101701E3,5.6622595E2,7.377541E2,1.1909437E2,2.3337703E2,7.720243E1],"tree_param":{"num_deleted":"0","num_feature":"10","num_nodes":"55","size_leaf_vector":"1"}},{"base_weights":[7.425362E-5,-1.898236E-1,1.9235802E-1,-2.52119E-1,3.4510672E-1,2.3795523E-1,-9.0301704E-1,-3.1614643E-1,1.9371417E-1,2.3548019E-1,3.95951E-3,1.9836174E-1,9.668276E-1,-1.0118994E0,-1.4016782E-3,-3.8407326E-1,1.3193977E-1,-3.5956204E-2,5.840406E-3,2.4129262E-3,1.5275052E-3,1.5655991E-1,5.49842E-1,1.0170954E0,-1.0257166E-4,-1.0595291E0,-6.22002E-3,-4.451778E-1,-2.6926406E-2,1.0317466E-1,1.1722353E-2,-6.862952E-2,5.9073004E-3,1.1504529E-1,4.7920966E-1,4.0504128E-1,6.261503E-3,9.625913E-3,1.3702916E-2,-1.0361503E-2,-1.2781022E-2,-2.9830833E-3,-5.275514E-3,-5.8689114E-4,8.0220755E-3,4.7261268E-4,1.3674649E-3,-5.8591866E-4,-7.008849E-4,1.3733382E-3,-1.2495568E-3,4.1430066E-3,8.747964E-3,3.8591388E-3,4.571906E-3],"categories":[],"categories_nodes":[],"categories_segments":[],"categories_sizes":[],"default_left":[0,0,0,0,0,0,0,0,0,0,0,0,0,0,0,0,0,0,0,0,0,0,0,0,0,0,0,0,0,0,0,0,0,0,0,0,0,0,0,0,0,0,0,0,0,0,0,0,0,0,0,0,0,0,0],"id":23,"left_children":[1,3,5,7,9,11,13,15,17,19,-1,21,23,25,-1,27,29,31,-1,-1,-1,33,35,37,-1,39,-1,41,43,45,-1,47,-1,49,51,53,-1,-1,-1,-1,-1,-1,-1,-1,-1,-1,-1,-1,-1,-1,-1,-1,-1,-1,-1],"loss_changes":[6.792704E2,3.1198026E2,4.6188458E2,2.3938177E2,5.350731E0,2.5592139E2,3.0557892E1,2.2319598E2,9.4458534E1,1.13134384E-1,0E0,1.2360678E2,2.2456207E1,5.344452E0,0E0,1.3892694E2,2.878074E1,1.363964E1,0E0,0E0,0E0,1.00744415E2,9.629425E0,7.048126E0,0E0,1.4056396E-1,0E0,6.5612305E1,2.4570345E1,1.7597866E0,0E0,5.1510334E-3,0E0,3.569021E1,2.1657516E1,1.3429642E-1,0E0,0E0,0E0,0E0,0E0,0E0,0E0,0E0,0E0,0E0,0E0,0E0,0E0,0E0,0E0,0E0,0E0,0E0,0E0],"parents":[2147483647,0,0,1,1,2,2,3,3,4,4,5,5,6,6,7,7,8,8,9,9,11,11,12,12,13,13,15,15,16,16,17,17,21,21,22,22,23,23,25,25,27,27,28,28,29,29,31,31,33,33,34,34,35,35],"right_children":[2,4,6,8,10,12,14,16,18,20,-1,22,24,26,-1,28,30,32,-1,-1,-1,34,36,38,-1,40,-1,42,44,46,-1,48,-1,50,52,54,-1,-1,-1,-1,-1,-1,-1,-1,-1,-1,-1,-1,-1,-1,-1,-1,-1,-1,-1],"split_conditions":[1E0,1E0,1E0,1E0,1E0,1E0,1E0,1E0,1E0,1E0,3.95951E-3,1E0,1E0,1E0,-1.4016782E-3,1E0,1E0,1E0,5.840406E-3,2.4129262E-3,1.5275052E-3,1E0,1E0,1E0,-1.0257166E-4,1E0,-6.22002E-3,1E0,1E0,1E0,1.1722353E-2,1E0,5.9073004E-3,1E0,1E0,1E0,6.261503E-3,9.625913E-3,1.3702916E-2,-1.0361503E-2,-1.2781022E-2,-2.9830833E-3,-5.275514E-3,-5.8689114E-4,8.0220755E-3,4.7261268E-4,1.3674649E-3,-5.8591866E-4,-7.008849E-4,1.3733382E-3,-1.2495568E-3,4.1430066E-3,8.747964E-3,3.8591388E-3,4.571906E-3],"split_indices":[4,5,3,7,1,0,5,6,2,0,0,5,8,6,0,9,0,0,0,0,0,7,1,6,0,9,0,1,0,1,0,1,0,8,2,2,0,0,0,0,0,0,0,0,0,0,0,0,0,0,0,0,0,0,0],"split_type":[0,0,0,0,0,0,0,0,0,0,0,0,0,0,0,0,0,0,0,0,0,0,0,0,0,0,0,0,0,0,0,0,0,0,0,0,0,0,0,0,0,0,0,0,0,0,0,0,0,0,0,0,0,0,0],"sum_hessian":[1.8600871E4,9.358503E3,9.242368E3,8.382811E3,9.7569293E2,8.873762E3,3.6860562E2,7.3303657E3,1.0524447E3,3.1092725E2,6.647657E2,8.417768E3,4.5599417E2,3.222798E2,4.632583E1,6.3655366E3,9.648292E2,6.6315076E2,3.8929398E2,2.8872525E2,2.2201994E1,7.524338E3,8.9343005E2,4.3364362E2,2.2350555E1,2.856656E2,3.6614223E1,5.435351E3,9.301851E2,9.3993823E2,2.4890963E1,6.311359E2,3.201482E1,6.6677676E3,8.565704E2,3.105142E2,5.829159E2,3.788985E2,5.4745132E1,2.6324887E2,2.2416697E1,1.9547378E3,3.4806135E3,8.967609E2,3.342417E1,3.5353644E2,5.864018E2,8.531726E1,5.4581866E2,6.1015527E3,5.662146E2,7.375916E2,1.189788E2,2.3333241E2,7.718176E1],"tree_param":{"num_deleted":"0","num_feature":"10","num_nodes":"55","size_leaf_vector":"1"}},{"base_weights":[7.624728E-5,-1.8796039E-1,1.9047476E-1,-2.4964705E-1,3.4172022E-1,2.3561923E-1,-8.95128E-1,-3.1304955E-1,1.9182289E-1,2.3315525E-1,3.920789E-3,1.9640063E-1,9.584527E-1,-1.0032221E0,-1.3879929E-3,-3.803218E-1,1.3064283E-1,-3.559042E-2,5.784757E-3,2.3890648E-3,1.5129335E-3,1.5500532E-1,5.445851E-1,1.0083524E0,-1.0159071E-4,-1.0505412E0,-6.1625335E-3,-4.408459E-1,-2.6649827E-2,1.0214665E-1,1.1629558E-2,-6.794549E-2,5.85263E-3,1.138975E-1,4.7459212E-1,4.0110487E-1,6.202204E-3,9.5414575E-3,1.3600633E-2,-1.0272704E-2,-1.268334E-2,-4.561256E-3,3.422329E-3,-5.810301E-4,7.9507055E-3,4.679008E-4,1.3538487E-3,-5.801297E-4,-6.938911E-4,1.3596395E-3,-1.2371083E-3,4.102568E-3,8.669852E-3,3.821465E-3,4.528008E-3],"categories":[],"categories_nodes":[],"categories_segments":[],"categories_sizes":[],"default_left":[0,0,0,0,0,0,0,0,0,0,0,0,0,0,0,0,0,0,0,0,0,0,0,0,0,0,0,0,0,0,0,0,0,0,0,0,0,0,0,0,0,0,0,0,0,0,0,0,0,0,0,0,0,0,0],"id":24,"left_children":[1,3,5,7,9,11,13,15,17,19,-1,21,23,25,-1,27,29,31,-1,-1,-1,33,35,37,-1,39,-1,41,43,45,-1,47,-1,49,51,53,-1,-1,-1,-1,-1,-1,-1,-1,-1,-1,-1,-1,-1,-1,-1,-1,-1,-1,-1],"loss_changes":[6.6588416E2,3.0583795E2,4.5312857E2,2.3467682E2,5.2474747E0,2.513583E2,3.0042236E1,2.1883167E2,9.263297E1,1.1070061E-1,0E0,1.2124518E2,2.2069824E1,5.264221E0,0E0,1.3623651E2,2.8291235E1,1.3380689E1,0E0,0E0,0E0,9.8804276E1,9.453705E0,6.9775696E0,0E0,1.4788818E-1,0E0,6.518591E1,2.4112516E1,1.7249203E0,0E0,5.0385E-3,0E0,3.4981445E1,2.1286224E1,1.3220596E-1,0E0,0E0,0E0,0E0,0E0,0E0,0E0,0E0,0E0,0E0,0E0,0E0,0E0,0E0,0E0,0E0,0E0,0E0,0E0],"parents":[2147483647,0,0,1,1,2,2,3,3,4,4,5,5,6,6,7,7,8,8,9,9,11,11,12,12,13,13,15,15,16,16,17,17,21,21,22,22,23,23,25,25,27,27,28,28,29,29,31,31,33,33,34,34,35,35],"right_children":[2,4,6,8,10,12,14,16,18,20,-1,22,24,26,-1,28,30,32,-1,-1,-1,34,36,38,-1,40,-1,42,44,46,-1,48,-1,50,52,54,-1,-1,-1,-1,-1,-1,-1,-1,-1,-1,-1,-1,-1,-1,-1,-1,-1,-1,-1],"split_conditions":[1E0,1E0,1E0,1E0,1E0,1E0,1E0,1E0,1E0,1E0,3.920789E-3,1E0,1E0,1E0,-1.3879929E-3,1E0,1E0,1E0,5.784757E-3,2.3890648E-3,1.5129335E-3,1E0,1E0,1E0,-1.0159071E-4,1E0,-6.1625335E-3,1E0,1E0,1E0,1.1629558E-2,1E0,5.85263E-3,1E0,1E0,1E0,6.202204E-3,9.5414575E-3,1.3600633E-2,-1.0272704E-2,-1.268334E-2,-4.561256E-3,3.422329E-3,-5.810301E-4,7.9507055E-3,4.679008E-4,1.3538487E-3,-5.801297E-4,-6.938911E-4,1.3596395E-3,-1.2371083E-3,4.102568E-3,8.669852E-3,3.821465E-3,4.528008E-3],"split_indices":[4,5,3,7,1,0,5,6,2,0,0,5,8,6,0,9,0,0,0,0,0,7,1,6,0,9,0,0,0,1,0,1,0,8,2,2,0,0,0,0,0,0,0,0,0,0,0,0,0,0,0,0,0,0,0],"split_type":[0,0,0,0,0,0,0,0,0,0,0,0,0,0,0,0,0,0,0,0,0,0,0,0,0,0,0,0,0,0,0,0,0,0,0,0,0,0,0,0,0,0,0,0,0,0,0,0,0,0,0,0,0,0,0],"sum_hessian":[1.8597133E4,9.356606E3,9.240525E3,8.381074E3,9.755323E2,8.8723545E3,3.6817133E2,7.328823E3,1.0522512E3,3.109043E2,6.64628E2,8.416949E3,4.5540482E2,3.2184668E2,4.6324627E1,6.3640537E3,9.6476953E2,6.6313214E2,3.891191E2,2.88703E2,2.2201311E1,7.5238877E3,8.9306213E2,4.3305426E2,2.2350552E1,2.8525107E2,3.6595634E1,5.433901E3,9.3015295E2,9.3992267E2,2.4846876E1,6.3113196E2,3.2000156E1,6.6676035E3,8.5628424E2,3.10447E2,5.826152E2,3.7844083E2,5.4613445E1,2.6287967E2,2.2371378E1,5.330311E3,1.0358951E2,8.967569E2,3.339608E1,3.5353537E2,5.863873E2,8.531687E1,5.458151E2,6.1014004E3,5.6620294E2,7.374244E2,1.18859856E2,2.332865E2,7.71605E1],"tree_param":{"num_deleted":"0","num_feature":"10","num_nodes":"55","size_leaf_vector":"1"}},{"base_weights":[7.866101E-5,-1.8611656E-1,1.886111E-1,-2.4720114E-1,3.383685E-1,2.3330733E-1,-8.873379E-1,-3.099856E-1,1.899507E-1,2.3085359E-1,3.8824698E-3,1.9445953E-1,9.501861E-1,-9.9465793E-1,-1.3744434E-3,-3.766108E-1,1.2935877E-1,-3.5228793E-2,5.7297084E-3,2.3654425E-3,1.4985019E-3,1.5346652E-1,5.3938484E-1,9.997239E-1,-1.0061627E-4,-1.0416733E0,-6.105664E-3,-4.365614E-1,-2.6376275E-2,1.0112879E-1,1.1538089E-2,-6.726871E-2,5.7985377E-3,1.12761386E-1,4.7002324E-1,3.9720905E-1,6.143558E-3,9.4580725E-3,1.3500079E-2,-1.0185076E-2,-1.2587177E-2,-2.913134E-3,-5.1804353E-3,-5.7522947E-4,7.880158E-3,4.6323735E-4,1.340366E-3,-5.743971E-4,-6.8697234E-4,1.3460799E-3,-1.2247867E-3,4.062547E-3,8.59268E-3,3.784178E-3,4.4845683E-3],"categories":[],"categories_nodes":[],"categories_segments":[],"categories_sizes":[],"default_left":[0,0,0,0,0,0,0,0,0,0,0,0,0,0,0,0,0,0,0,0,0,0,0,0,0,0,0,0,0,0,0,0,0,0,0,0,0,0,0,0,0,0,0,0,0,0,0,0,0,0,0,0,0,0,0],"id":25,"left_children":[1,3,5,7,9,11,13,15,17,19,-1,21,23,25,-1,27,29,31,-1,-1,-1,33,35,37,-1,39,-1,41,43,45,-1,47,-1,49,51,53,-1,-1,-1,-1,-1,-1,-1,-1,-1,-1,-1,-1,-1,-1,-1,-1,-1,-1,-1],"loss_changes":[6.5276465E2,2.998184E2,4.44549E2,2.3006598E2,5.1463165E0,2.4689047E2,2.953778E1,2.1455524E2,9.084416E1,1.08320236E-1,0E0,1.1893115E2,2.1691803E1,5.185974E0,0E0,1.336012E2,2.7811808E1,1.3126809E1,0E0,0E0,0E0,9.690285E1,9.281799E0,6.9093018E0,0E0,1.5512085E-1,0E0,6.415369E1,2.3663746E1,1.6907301E0,0E0,4.929781E-3,0E0,3.4286873E1,2.092276E1,1.3015366E-1,0E0,0E0,0E0,0E0,0E0,0E0,0E0,0E0,0E0,0E0,0E0,0E0,0E0,0E0,0E0,0E0,0E0,0E0,0E0],"parents":[2147483647,0,0,1,1,2,2,3,3,4,4,5,5,6,6,7,7,8,8,9,9,11,11,12,12,13,13,15,15,16,16,17,17,21,21,22,22,23,23,25,25,27,27,28,28,29,29,31,31,33,33,34,34,35,35],"right_children":[2,4,6,8,10,12,14,16,18,20,-1,22,24,26,-1,28,30,32,-1,-1,-1,34,36,38,-1,40,-1,42,44,46,-1,48,-1,50,52,54,-1,-1,-1,-1,-1,-1,-1,-1,-1,-1,-1,-1,-1,-1,-1,-1,-1,-1,-1],"split_conditions":[1E0,1E0,1E0,1E0,1E0,1E0,1E0,1E0,1E0,1E0,3.8824698E-3,1E0,1E0,1E0,-1.3744434E-3,1E0,1E0,1E0,5.7297084E-3,2.3654425E-3,1.4985019E-3,1E0,1E0,1E0,-1.0061627E-4,1E0,-6.105664E-3,1E0,1E0,1E0,1.1538089E-2,1E0,5.7985377E-3,1E0,1E0,1E0,6.143558E-3,9.4580725E-3,1.3500079E-2,-1.0185076E-2,-1.2587177E-2,-2.913134E-3,-5.1804353E-3,-5.7522947E-4,7.880158E-3,4.6323735E-4,1.340366E-3,-5.743971E-4,-6.8697234E-4,1.3460799E-3,-1.2247867E-3,4.062547E-3,8.59268E-3,3.784178E-3,4.4845683E-3],"split_indices":[4,5,3,7,1,0,5,6,2,0,0,5,8,6,0,9,0,0,0,0,0,7,1,6,0,9,0,1,0,1,0,1,0,8,2,2,0,0,0,0,0,0,0,0,0,0,0,0,0,0,0,0,0,0,0],"split_type":[0,0,0,0,0,0,0,0,0,0,0,0,0,0,0,0,0,0,0,0,0,0,0,0,0,0,0,0,0,0,0,0,0,0,0,0,0,0,0,0,0,0,0,0,0,0,0,0,0,0,0,0,0,0,0],"sum_hessian":[1.8593248E4,9.354614E3,9.238634E3,8.379247E3,9.753673E2,8.870908E3,3.677252E2,7.327195E3,1.0520525E3,3.1088077E2,6.644866E2,8.416109E3,4.5479944E2,3.214018E2,4.6323387E1,6.3624863E3,9.6470825E2,6.6311304E2,3.8893948E2,2.8868015E2,2.220061E1,7.523425E3,8.9268427E2,4.3244888E2,2.235055E1,2.8482526E2,3.6576534E1,5.4323667E3,9.301199E2,9.399067E2,2.480157E1,6.311279E2,3.198509E1,6.6674346E3,8.559903E2,3.10378E2,5.823063E2,3.7797073E2,5.4478153E1,2.6250052E2,2.2324741E1,1.9539246E3,3.4784421E3,8.967527E2,3.3367214E1,3.535343E2,5.863724E2,8.531648E1,5.4581146E2,6.1012437E3,5.6619086E2,7.372526E2,1.1873767E2,2.3323935E2,7.713865E1],"tree_param":{"num_deleted":"0","num_feature":"10","num_nodes":"55","size_leaf_vector":"1"}},{"base_weights":[8.069907E-5,-1.8429174E-1,1.8676679E-1,-2.4478017E-1,3.3505124E-1,2.3101923E-1,-8.796445E-1,-3.0695257E-1,1.8809786E-1,2.2857545E-1,3.844546E-3,1.9253825E-1,9.4202435E-1,-9.8620397E-1,-1.3610258E-3,-3.7293693E-1,1.2808758E-1,-3.4870643E-2,5.675252E-3,2.3420625E-3,1.4842089E-3,1.5194342E-1,5.3423995E-1,9.9120665E-1,-9.9655306E-5,-1.0329224E0,-6.049402E-3,-4.323196E-1,-2.6105443E-2,1.00121126E-1,1.14479065E-2,-6.659845E-2,5.7450146E-3,1.1163687E-1,4.655026E-1,3.933533E-1,6.085548E-3,9.375727E-3,1.3401195E-2,-1.0098587E-2,-1.249249E-2,-4.4743232E-3,3.4173303E-3,-5.694859E-4,7.810413E-3,4.586201E-4,1.3270188E-3,-5.6872424E-4,-6.8011956E-4,1.3326582E-3,-1.212586E-3,4.022942E-3,8.516427E-3,3.7472758E-3,4.441575E-3],"categories":[],"categories_nodes":[],"categories_segments":[],"categories_sizes":[],"default_left":[0,0,0,0,0,0,0,0,0,0,0,0,0,0,0,0,0,0,0,0,0,0,0,0,0,0,0,0,0,0,0,0,0,0,0,0,0,0,0,0,0,0,0,0,0,0,0,0,0,0,0,0,0,0,0],"id":26,"left_children":[1,3,5,7,9,11,13,15,17,19,-1,21,23,25,-1,27,29,31,-1,-1,-1,33,35,37,-1,39,-1,41,43,45,-1,47,-1,49,51,53,-1,-1,-1,-1,-1,-1,-1,-1,-1,-1,-1,-1,-1,-1,-1,-1,-1,-1,-1],"loss_changes":[6.3990857E2,2.939187E2,4.3614197E2,2.255466E2,5.0471725E0,2.4251501E2,2.9044159E1,2.1036316E2,8.9091156E1,1.0599136E-1,0E0,1.1666333E2,2.1321808E1,5.109619E0,0E0,1.3101746E2,2.7342136E1,1.2877871E1,0E0,0E0,0E0,9.503937E1,9.113419E0,6.843292E0,0E0,1.62323E-1,0E0,6.3694763E1,2.3223812E1,1.6572208E0,0E0,4.822254E-3,0E0,3.3606094E1,2.0566849E1,1.2814331E-1,0E0,0E0,0E0,0E0,0E0,0E0,0E0,0E0,0E0,0E0,0E0,0E0,0E0,0E0,0E0,0E0,0E0,0E0,0E0],"parents":[2147483647,0,0,1,1,2,2,3,3,4,4,5,5,6,6,7,7,8,8,9,9,11,11,12,12,13,13,15,15,16,16,17,17,21,21,22,22,23,23,25,25,27,27,28,28,29,29,31,31,33,33,34,34,35,35],"right_children":[2,4,6,8,10,12,14,16,18,20,-1,22,24,26,-1,28,30,32,-1,-1,-1,34,36,38,-1,40,-1,42,44,46,-1,48,-1,50,52,54,-1,-1,-1,-1,-1,-1,-1,-1,-1,-1,-1,-1,-1,-1,-1,-1,-1,-1,-1],"split_conditions":[1E0,1E0,1E0,1E0,1E0,1E0,1E0,1E0,1E0,1E0,3.844546E-3,1E0,1E0,1E0,-1.3610258E-3,1E0,1E0,1E0,5.675252E-3,2.3420625E-3,1.4842089E-3,1E0,1E0,1E0,-9.9655306E-5,1E0,-6.049402E-3,1E0,1E0,1E0,1.14479065E-2,1E0,5.7450146E-3,1E0,1E0,1E0,6.085548E-3,9.375727E-3,1.3401195E-2,-1.0098587E-2,-1.249249E-2,-4.4743232E-3,3.4173303E-3,-5.694859E-4,7.810413E-3,4.586201E-4,1.3270188E-3,-5.6872424E-4,-6.8011956E-4,1.3326582E-3,-1.212586E-3,4.022942E-3,8.516427E-3,3.7472758E-3,4.441575E-3],"split_indices":[4,5,3,7,1,0,5,6,2,0,0,5,8,6,0,9,0,0,0,0,0,7,1,6,0,9,0,0,0,1,0,1,0,8,2,2,0,0,0,0,0,0,0,0,0,0,0,0,0,0,0,0,0,0,0],"split_type":[0,0,0,0,0,0,0,0,0,0,0,0,0,0,0,0,0,0,0,0,0,0,0,0,0,0,0,0,0,0,0,0,0,0,0,0,0,0,0,0,0,0,0,0,0,0,0,0,0,0,0,0,0,0,0],"sum_hessian":[1.8589309E4,9.352615E3,9.236693E3,8.377417E3,9.751981E2,8.869426E3,3.6726764E2,7.325569E3,1.0518488E3,3.108566E2,6.643415E2,8.415247E3,4.5417862E2,3.209455E2,4.632212E1,6.3609233E3,9.646454E2,6.630934E2,3.8875528E2,2.886567E2,2.2199888E1,7.52295E3,8.9229675E2,4.3182806E2,2.2350544E1,2.8438855E2,3.6556946E1,5.4308374E3,9.300858E2,9.3989026E2,2.4755093E1,6.311238E2,3.1969633E1,6.6672617E3,8.556888E2,3.1030722E2,5.819895E2,3.7748868E2,5.4339397E1,2.6211172E2,2.2276833E1,5.3272495E3,1.0358809E2,8.967482E2,3.33376E1,3.535332E2,5.863571E2,8.531607E1,5.458077E2,6.101083E3,5.661785E2,7.370764E2,1.1861235E2,2.33191E2,7.7116234E1],"tree_param":{"num_deleted":"0","num_feature":"10","num_nodes":"55","size_leaf_vector":"1"}},{"base_weights":[8.3020255E-5,-1.824859E-1,1.8494138E-1,-2.4238464E-1,3.3176768E-1,2.2875443E-1,-8.720454E-1,-3.0395174E-1,1.8626404E-1,2.2631995E-1,3.807011E-3,1.9063637E-1,9.339653E-1,-9.7785735E-1,-1.3477389E-3,-3.6930263E-1,1.2682909E-1,-3.4516033E-2,5.621378E-3,2.3189154E-3,1.4700512E-3,1.5043555E-1,5.2914995E-1,9.82798E-1,-9.870141E-5,-1.0242853E0,-5.993738E-3,-4.2812416E-1,-2.5837533E-2,9.912352E-2,1.1358974E-2,-6.593478E-2,5.6920545E-3,1.1052352E-1,4.6102932E-1,3.895372E-1,6.028169E-3,9.294397E-3,1.3303937E-2,-1.0013208E-2,-1.2399237E-2,-2.844727E-3,-5.087298E-3,-5.638009E-4,7.7414545E-3,4.5404682E-4,1.3138062E-3,-5.631038E-4,-6.733345E-4,1.3193701E-3,-1.2005086E-3,3.9837444E-3,8.441078E-3,3.7107512E-3,4.3990263E-3],"categories":[],"categories_nodes":[],"categories_segments":[],"categories_sizes":[],"default_left":[0,0,0,0,0,0,0,0,0,0,0,0,0,0,0,0,0,0,0,0,0,0,0,0,0,0,0,0,0,0,0,0,0,0,0,0,0,0,0,0,0,0,0,0,0,0,0,0,0,0,0,0,0,0,0],"id":27,"left_children":[1,3,5,7,9,11,13,15,17,19,-1,21,23,25,-1,27,29,31,-1,-1,-1,33,35,37,-1,39,-1,41,43,45,-1,47,-1,49,51,53,-1,-1,-1,-1,-1,-1,-1,-1,-1,-1,-1,-1,-1,-1,-1,-1,-1,-1,-1],"loss_changes":[6.273077E2,2.881368E2,4.279033E2,2.2111795E2,4.9500427E0,2.3822949E2,2.8561005E1,2.0625562E2,8.7373184E1,1.0371113E-1,0E0,1.1444107E2,2.0959595E1,5.0351562E0,0E0,1.2848651E2,2.688197E1,1.2633788E1,0E0,0E0,0E0,9.321312E1,8.948547E0,6.7793884E0,0E0,1.6946411E-1,0E0,6.2732605E1,2.2792511E1,1.6243916E0,0E0,4.717827E-3,0E0,3.2938858E1,2.0218338E1,1.2616348E-1,0E0,0E0,0E0,0E0,0E0,0E0,0E0,0E0,0E0,0E0,0E0,0E0,0E0,0E0,0E0,0E0,0E0,0E0,0E0],"parents":[2147483647,0,0,1,1,2,2,3,3,4,4,5,5,6,6,7,7,8,8,9,9,11,11,12,12,13,13,15,15,16,16,17,17,21,21,22,22,23,23,25,25,27,27,28,28,29,29,31,31,33,33,34,34,35,35],"right_children":[2,4,6,8,10,12,14,16,18,20,-1,22,24,26,-1,28,30,32,-1,-1,-1,34,36,38,-1,40,-1,42,44,46,-1,48,-1,50,52,54,-1,-1,-1,-1,-1,-1,-1,-1,-1,-1,-1,-1,-1,-1,-1,-1,-1,-1,-1],"split_conditions":[1E0,1E0,1E0,1E0,1E0,1E0,1E0,1E0,1E0,1E0,3.807011E-3,1E0,1E0,1E0,-1.3477389E-3,1E0,1E0,1E0,5.621378E-3,2.3189154E-3,1.4700512E-3,1E0,1E0,1E0,-9.870141E-5,1E0,-5.993738E-3,1E0,1E0,1E0,1.1358974E-2,1E0,5.6920545E-3,1E0,1E0,1E0,6.028169E-3,9.294397E-3,1.3303937E-2,-1.0013208E-2,-1.2399237E-2,-2.844727E-3,-5.087298E-3,-5.638009E-4,7.7414545E-3,4.5404682E-4,1.3138062E-3,-5.631038E-4,-6.733345E-4,1.3193701E-3,-1.2005086E-3,3.9837444E-3,8.441078E-3,3.7107512E-3,4.3990263E-3],"split_indices":[4,5,3,7,1,0,5,6,2,0,0,5,8,6,0,9,0,0,0,0,0,7,1,6,0,9,0,1,0,1,0,1,0,8,2,2,0,0,0,0,0,0,0,0,0,0,0,0,0,0,0,0,0,0,0],"split_type":[0,0,0,0,0,0,0,0,0,0,0,0,0,0,0,0,0,0,0,0,0,0,0,0,0,0,0,0,0,0,0,0,0,0,0,0,0,0,0,0,0,0,0,0,0,0,0,0,0,0,0,0,0,0,0],"sum_hessian":[1.858523E4,9.350524E3,9.234707E3,8.375499E3,9.7502484E2,8.867907E3,3.667991E2,7.3238594E3,1.05164E3,3.1083188E2,6.64193E2,8.414364E3,4.5354297E2,3.204783E2,4.6320827E1,6.3592783E3,9.6458093E2,6.6307336E2,3.885667E2,2.8863272E2,2.219915E1,7.5224644E3,8.919E2,4.311924E2,2.2350542E1,2.839414E2,3.653688E1,5.429227E3,9.3005115E2,9.398735E2,2.4707483E1,6.3111957E2,3.1953802E1,6.6670845E3,8.5538007E2,3.1023477E2,5.816652E2,3.7699512E2,5.4197308E1,2.617137E2,2.2227697E1,1.9530775E3,3.4761497E3,8.967439E2,3.330727E1,3.5353207E2,5.8634143E2,8.531565E1,5.458039E2,6.1009185E3,5.661659E2,7.36896E2,1.1848404E2,2.3314148E2,7.709329E1],"tree_param":{"num_deleted":"0","num_feature":"10","num_nodes":"55","size_leaf_vector":"1"}},{"base_weights":[8.486609E-5,-1.8069851E-1,1.8313456E-1,-2.4001333E-1,3.2851776E-1,2.2651257E-1,-8.645385E-1,-3.0098096E-1,1.8444897E-1,2.2408722E-1,3.7698639E-3,1.8875355E-1,9.260065E-1,-9.696156E-1,-1.3345844E-3,-3.6570445E-1,1.2558329E-1,-3.4165252E-2,5.5680815E-3,2.296002E-3,1.4560334E-3,1.4894271E-1,5.241136E-1,9.744954E-1,-9.7754586E-5,-1.0157592E0,-5.938661E-3,-4.2397013E-1,-2.5572283E-2,9.813601E-2,1.1271262E-2,-6.5277934E-2,5.6396457E-3,1.0942114E-1,4.5660302E-1,3.8576037E-1,5.971404E-3,9.214062E-3,1.3208251E-2,-9.928914E-3,-1.2307379E-2,-4.3891827E-3,3.4117135E-3,-5.581719E-4,7.6732705E-3,4.4952089E-4,1.3007266E-3,-5.5754115E-4,-6.666194E-4,1.3062131E-3,-1.1885518E-3,3.944953E-3,8.366606E-3,3.6746024E-3,4.356916E-3],"categories":[],"categories_nodes":[],"categories_segments":[],"categories_sizes":[],"default_left":[0,0,0,0,0,0,0,0,0,0,0,0,0,0,0,0,0,0,0,0,0,0,0,0,0,0,0,0,0,0,0,0,0,0,0,0,0,0,0,0,0,0,0,0,0,0,0,0,0,0,0,0,0,0,0],"id":28,"left_children":[1,3,5,7,9,11,13,15,17,19,-1,21,23,25,-1,27,29,31,-1,-1,-1,33,35,37,-1,39,-1,41,43,45,-1,47,-1,49,51,53,-1,-1,-1,-1,-1,-1,-1,-1,-1,-1,-1,-1,-1,-1,-1,-1,-1,-1,-1],"loss_changes":[6.149585E2,2.8246973E2,4.1982916E2,2.1677686E2,4.8548813E0,2.3403168E2,2.8088013E1,2.0222876E2,8.568973E1,1.0148239E-1,0E0,1.1226309E2,2.060492E1,4.962433E0,0E0,1.26004944E2,2.643105E1,1.2394455E1,0E0,0E0,0E0,9.142345E1,8.786957E0,6.717499E0,0E0,1.765747E-1,0E0,6.2239502E1,2.2369669E1,1.5922127E0,0E0,4.6150684E-3,0E0,3.2284836E1,1.9876923E1,1.242218E-1,0E0,0E0,0E0,0E0,0E0,0E0,0E0,0E0,0E0,0E0,0E0,0E0,0E0,0E0,0E0,0E0,0E0,0E0,0E0],"parents":[2147483647,0,0,1,1,2,2,3,3,4,4,5,5,6,6,7,7,8,8,9,9,11,11,12,12,13,13,15,15,16,16,17,17,21,21,22,22,23,23,25,25,27,27,28,28,29,29,31,31,33,33,34,34,35,35],"right_children":[2,4,6,8,10,12,14,16,18,20,-1,22,24,26,-1,28,30,32,-1,-1,-1,34,36,38,-1,40,-1,42,44,46,-1,48,-1,50,52,54,-1,-1,-1,-1,-1,-1,-1,-1,-1,-1,-1,-1,-1,-1,-1,-1,-1,-1,-1],"split_conditions":[1E0,1E0,1E0,1E0,1E0,1E0,1E0,1E0,1E0,1E0,3.7698639E-3,1E0,1E0,1E0,-1.3345844E-3,1E0,1E0,1E0,5.5680815E-3,2.296002E-3,1.4560334E-3,1E0,1E0,1E0,-9.7754586E-5,1E0,-5.938661E-3,1E0,1E0,1E0,1.1271262E-2,1E0,5.6396457E-3,1E0,1E0,1E0,5.971404E-3,9.214062E-3,1.3208251E-2,-9.928914E-3,-1.2307379E-2,-4.3891827E-3,3.4117135E-3,-5.581719E-4,7.6732705E-3,4.4952089E-4,1.3007266E-3,-5.5754115E-4,-6.666194E-4,1.3062131E-3,-1.1885518E-3,3.944953E-3,8.366606E-3,3.6746024E-3,4.356916E-3],"split_indices":[4,5,3,7,1,0,5,6,2,0,0,5,8,6,0,9,0,0,0,0,0,7,1,6,0,9,0,0,0,1,0,1,0,8,2,2,0,0,0,0,0,0,0,0,0,0,0,0,0,0,0,0,0,0,0],"split_type":[0,0,0,0,0,0,0,0,0,0,0,0,0,0,0,0,0,0,0,0,0,0,0,0,0,0,0,0,0,0,0,0,0,0,0,0,0,0,0,0,0,0,0,0,0,0,0,0,0,0,0,0,0,0,0],"sum_hessian":[1.8581105E4,9.34843E3,9.232676E3,8.373582E3,9.748477E2,8.866355E3,3.6632004E2,7.3221553E3,1.0514266E3,3.1080658E2,6.6404114E2,8.413462E3,4.5289297E2,3.2000055E2,4.63195E1,6.3576406E3,9.645151E2,6.630528E2,3.8837384E2,2.886082E2,2.2198397E1,7.5219683E3,8.914942E2,4.3054242E2,2.235054E1,2.834842E2,3.651635E1,5.427625E3,9.300156E2,9.398563E2,2.4658783E1,6.311152E2,3.1937607E1,6.666904E3,8.550644E2,3.1016064E2,5.8133356E2,3.7649042E2,5.4052002E1,2.6130682E2,2.2177378E1,5.324038E3,1.03586494E2,8.967394E2,3.327625E1,3.535309E2,5.863254E2,8.531523E1,5.458E2,6.1007505E3,5.66153E2,7.3671155E2,1.1835284E2,2.3309084E2,7.706982E1],"tree_param":{"num_deleted":"0","num_feature":"10","num_nodes":"55","size_leaf_vector":"1"}},{"base_weights":[8.7053944E-5,-1.789297E-1,1.8134637E-1,-2.3766693E-1,3.2530087E-1,2.2429366E-1,-8.571217E-1,-2.9804167E-1,1.8265231E-1,2.2187664E-1,3.7330966E-3,1.8688986E-1,9.181457E-1,-9.614761E-1,-1.3215606E-3,-3.621449E-1,1.2435005E-1,-3.3817917E-2,5.515346E-3,2.273317E-3,1.4421477E-3,1.4746499E-1,5.1913047E-1,9.6629643E-1,-9.682124E-5,-1.0073414E0,-5.884162E-3,-4.198614E-1,-2.530973E-2,9.715846E-2,1.1184737E-2,-6.462751E-2,5.5877827E-3,1.0832996E-1,4.522226E-1,3.82022E-1,5.91525E-3,9.1347005E-3,1.3114096E-2,-9.845675E-3,-1.2216873E-2,-2.7778253E-3,-4.9960497E-3,-5.5259874E-4,7.605844E-3,4.4503887E-4,1.2877802E-3,-5.5203354E-4,-6.5996975E-4,8.422333E-4,3.060244E-3,3.9065583E-3,8.292998E-3,3.6388217E-3,4.3152366E-3],"categories":[],"categories_nodes":[],